0:[path_count<5] yes=1,no=2,missing=2
	1:[url_length<3538] yes=3,no=4,missing=4
		3:[application_x_javascript<1] yes=7,no=8,missing=8
			7:[image_gif<1] yes=13,no=14,missing=14
				13:[sizeBytes<172] yes=25,no=26,missing=26
					25:[resourceType<2] yes=43,no=44,missing=44
						43:[path_count<4] yes=71,no=72,missing=72
							71:[path_count<2] yes=111,no=112,missing=112
								111:[sizeBytes<65] yes=165,no=166,missing=166
									165:[queryParam_num<5] yes=239,no=240,missing=240
										239:leaf=0.11452961
										240:leaf=-0.173173875
									166:[sizeBytes<154] yes=241,no=242,missing=242
										241:leaf=0.52869606
										242:leaf=0.0443583988
								112:[status<203] yes=167,no=168,missing=168
									167:[url_length<216] yes=243,no=244,missing=244
										243:leaf=-0.152991951
										244:leaf=-0.00396327302
									168:[url_length<154] yes=245,no=246,missing=246
										245:leaf=-0.0442150868
										246:leaf=0.222460538
							72:[image_png<1] yes=113,no=114,missing=114
								113:[url_length<66] yes=169,no=170,missing=170
									169:[url_length<58] yes=247,no=248,missing=248
										247:leaf=-0.14010331
										248:leaf=0.10977602
									170:leaf=0.429678679
								114:leaf=0.6987198
						44:[resourceType<5] yes=73,no=74,missing=74
							73:[url_length<580] yes=115,no=116,missing=116
								115:[url_length<36] yes=171,no=172,missing=172
									171:[path_count<3] yes=249,no=250,missing=250
										249:leaf=-0.0312260576
										250:leaf=0.58062464
									172:[queryParam_num<2] yes=251,no=252,missing=252
										251:leaf=-0.10548269
										252:leaf=0.0225387663
								116:[sizeBytes<2] yes=173,no=174,missing=174
									173:[queryParam_num<41] yes=253,no=254,missing=254
										253:leaf=0.159722701
										254:leaf=-0.221488595
									174:leaf=0.608748853
							74:[application_javascript<1] yes=117,no=118,missing=118
								117:[sizeBytes<146] yes=175,no=176,missing=176
									175:[path_count<2] yes=255,no=256,missing=256
										255:leaf=-0.215543389
										256:leaf=-0.136699781
									176:[application_json<1] yes=257,no=258,missing=258
										257:leaf=-0.0670397803
										258:leaf=0.495893478
								118:[queryParam_num<1] yes=177,no=178,missing=178
									177:leaf=0.485246867
									178:leaf=-0.175605714
					26:[text_javascript<1] yes=45,no=46,missing=46
						45:[sizeBytes<268458] yes=75,no=76,missing=76
							75:[url_length<68] yes=119,no=120,missing=120
								119:[url_length<67] yes=179,no=180,missing=180
									179:[url_length<40] yes=259,no=260,missing=260
										259:leaf=-0.229670629
										260:leaf=-0.0949942097
									180:[path_count<4] yes=261,no=262,missing=262
										261:leaf=0.471035451
										262:leaf=-0.18129614
								120:[resourceType<1] yes=181,no=182,missing=182
									181:[queryParam_num<5] yes=263,no=264,missing=264
										263:leaf=-0.00396327302
										264:leaf=0.39454636
									182:[url_length<92] yes=265,no=266,missing=266
										265:leaf=-0.187291011
										266:leaf=-0.136439562
							76:[sizeBytes<278639] yes=121,no=122,missing=122
								121:leaf=0.541924
								122:[resourceType<4] yes=183,no=184,missing=184
									183:[resourceType<2] yes=267,no=268,missing=268
										267:leaf=0.0370472185
										268:leaf=0.328632593
									184:leaf=-0.16165261
						46:[url_length<108] yes=77,no=78,missing=78
							77:[sizeBytes<40224] yes=123,no=124,missing=124
								123:[sizeBytes<38122] yes=185,no=186,missing=186
									185:[url_length<88] yes=269,no=270,missing=270
										269:leaf=-0.0201630127
										270:leaf=-0.242619425
									186:leaf=0.571270764
								124:[url_length<48] yes=187,no=188,missing=188
									187:leaf=-0.0944002643
									188:leaf=-0.247491643
							78:[path_count<2] yes=125,no=126,missing=126
								125:leaf=-0.169117957
								126:[url_length<111] yes=189,no=190,missing=190
									189:leaf=0.200332835
									190:leaf=0.680876434
				14:[sizeBytes<38] yes=27,no=28,missing=28
					27:[resourceType<5] yes=47,no=48,missing=48
						47:[resourceType<2] yes=79,no=80,missing=80
							79:[path_count<2] yes=127,no=128,missing=128
								127:[url_length<1058] yes=191,no=192,missing=192
									191:leaf=-0.220053941
									192:leaf=0.0767183751
								128:[url_length<90] yes=193,no=194,missing=194
									193:[url_length<81] yes=271,no=272,missing=272
										271:leaf=0.0443583988
										272:leaf=-0.152970761
									194:leaf=0.424242407
							80:leaf=0.418572485
						48:leaf=-0.242147952
					28:[url_length<94] yes=49,no=50,missing=50
						49:[sizeBytes<6136] yes=81,no=82,missing=82
							81:leaf=0.566723287
							82:leaf=-0.0670397803
						50:[url_length<511] yes=83,no=84,missing=84
							83:[url_length<136] yes=129,no=130,missing=130
								129:[sizeBytes<43] yes=195,no=196,missing=196
									195:leaf=-0.0491951257
									196:[sizeBytes<46] yes=273,no=274,missing=274
										273:leaf=0.231465459
										274:leaf=-0.0491951257
								130:[url_length<167] yes=197,no=198,missing=198
									197:leaf=-0.0670397803
									198:leaf=-0.216349632
							84:[queryParam_num<17] yes=131,no=132,missing=132
								131:leaf=0.52869606
								132:[url_length<580] yes=199,no=200,missing=200
									199:leaf=-0.152970761
									200:[queryParam_num<42] yes=275,no=276,missing=276
										275:leaf=0.245724365
										276:leaf=-0.152970761
			8:[url_length<92] yes=15,no=16,missing=16
				15:[url_length<61] yes=29,no=30,missing=30
					29:[url_length<44] yes=51,no=52,missing=52
						51:leaf=0.0443583988
						52:leaf=-0.201723456
					30:leaf=0.0579003505
				16:leaf=0.65173763
		4:leaf=0.643040955
	2:[resourceType<2] yes=5,no=6,missing=6
		5:[sizeBytes<2] yes=9,no=10,missing=10
			9:[queryParam_num<2] yes=17,no=18,missing=18
				17:[path_count<6] yes=31,no=32,missing=32
					31:[url_length<61] yes=53,no=54,missing=54
						53:leaf=-0.106553435
54:[isHttps] yes=85,no=86
							85:leaf=0.104822181
							86:[url_length<70] yes=133,no=134,missing=134
								133:[url_length<62] yes=201,no=202,missing=202
									201:leaf=0.711315274
									202:[url_length<66] yes=277,no=278,missing=278
										277:leaf=-0.0529939793
										278:leaf=0.229442194
								134:leaf=0.712546647
					32:[image_png<1] yes=55,no=56,missing=56
						55:[status<201] yes=87,no=88,missing=88
							87:leaf=-0.205340609
							88:leaf=0.104822181
						56:leaf=0.630111158
				18:leaf=-0.244742081
			10:[url_length<90] yes=19,no=20,missing=20
				19:[sizeBytes<45350] yes=33,no=34,missing=34
					33:[path_count<6] yes=57,no=58,missing=58
						57:[queryParam_num<1] yes=89,no=90,missing=90
							89:[url_length<67] yes=135,no=136,missing=136
								135:[sizeBytes<18160] yes=203,no=204,missing=204
									203:[sizeBytes<172] yes=279,no=280,missing=280
										279:leaf=-0.0491951257
										280:leaf=-0.178052083
									204:[sizeBytes<20968] yes=281,no=282,missing=282
										281:leaf=0.0443583988
										282:leaf=-0.0176614877
								136:[url_length<87] yes=205,no=206,missing=206
									205:[url_length<74] yes=283,no=284,missing=284
										283:leaf=-0.051835265
										284:leaf=0.177943155
									206:[sizeBytes<9275] yes=285,no=286,missing=286
										285:leaf=-0.070892863
										286:leaf=-0.169294223
							90:leaf=0.586389244
						58:[path_count<7] yes=91,no=92,missing=92
							91:[url_length<67] yes=137,no=138,missing=138
								137:leaf=-0.0821956247
								138:leaf=-0.26152131
							92:[sizeBytes<4086] yes=139,no=140,missing=140
								139:leaf=-0.17051585
								140:leaf=0.0443583988
					34:[image_png<1] yes=59,no=60,missing=60
						59:[sizeBytes<89478] yes=93,no=94,missing=94
							93:[url_length<88] yes=141,no=142,missing=142
								141:[url_length<83] yes=207,no=208,missing=208
									207:[url_length<82] yes=287,no=288,missing=288
										287:leaf=0.195402846
										288:leaf=-0.175605714
									208:[url_length<87] yes=289,no=290,missing=290
										289:leaf=0.538894594
										290:leaf=0.142748818
								142:[sizeBytes<79592] yes=209,no=210,missing=210
									209:[sizeBytes<52152] yes=291,no=292,missing=292
										291:leaf=-0.0491951257
										292:leaf=-0.169117957
									210:leaf=0.0443583988
							94:[image_webp<1] yes=143,no=144,missing=144
								143:leaf=0.612474382
								144:leaf=0.200332835
						60:[sizeBytes<89478] yes=95,no=96,missing=96
							95:leaf=0.190753177
							96:[url_length<81] yes=145,no=146,missing=146
								145:[sizeBytes<108098] yes=211,no=212,missing=212
									211:leaf=-0.0491951257
									212:leaf=-0.204708382
								146:leaf=0.018891206
				20:[url_length<99] yes=35,no=36,missing=36
					35:[queryParam_num<1] yes=61,no=62,missing=62
						61:[sizeBytes<22366] yes=97,no=98,missing=98
							97:[sizeBytes<11854] yes=147,no=148,missing=148
								147:[image_png<1] yes=213,no=214,missing=214
									213:[sizeBytes<6136] yes=293,no=294,missing=294
										293:leaf=-0.0261723306
										294:leaf=-0.18925868
									214:[path_count<6] yes=295,no=296,missing=296
										295:leaf=0.325018972
										296:leaf=-0.16165261
								148:[image_webp<1] yes=215,no=216,missing=216
									215:[sizeBytes<14048] yes=297,no=298,missing=298
										297:leaf=0.325018972
										298:leaf=0.0666161776
									216:leaf=-0.142748654
							98:[image_webp<1] yes=149,no=150,missing=150
								149:[url_length<98] yes=217,no=218,missing=218
									217:leaf=0.545179009
									218:leaf=0.16965571
								150:leaf=-0.0213376377
						62:[sizeBytes<65968] yes=99,no=100,missing=100
							99:leaf=0.691553056
							100:leaf=-0.17051585
					36:[queryParam_num<2] yes=63,no=64,missing=64
						63:[url_length<256] yes=101,no=102,missing=102
							101:[path_count<7] yes=151,no=152,missing=152
								151:[url_length<100] yes=219,no=220,missing=220
									219:[sizeBytes<27296] yes=299,no=300,missing=300
										299:leaf=-0.18817541
										300:leaf=0.276684165
									220:[url_length<132] yes=301,no=302,missing=302
										301:leaf=0.162915155
										302:leaf=0.458545297
								152:[queryParam_num<1] yes=221,no=222,missing=222
									221:[image_webp<1] yes=303,no=304,missing=304
										303:leaf=0.0971004888
										304:leaf=-0.110365048
									222:leaf=-0.229163796
							102:[path_count<15] yes=153,no=154,missing=154
								153:[sizeBytes<46] yes=223,no=224,missing=224
									223:leaf=0.15617536
									224:leaf=0.637562215
								154:[sizeBytes<11385] yes=225,no=226,missing=226
									225:leaf=-0.180881634
									226:leaf=-0.0375011526
						64:[path_count<9] yes=103,no=104,missing=104
							103:[queryParam_num<4] yes=155,no=156,missing=156
								155:[sizeBytes<3378] yes=227,no=228,missing=228
									227:leaf=0.0767183751
									228:[url_length<143] yes=305,no=306,missing=306
										305:leaf=-0.125607833
										306:leaf=0.0191437863
								156:[url_length<146] yes=229,no=230,missing=230
									229:leaf=0.579780877
									230:[sizeBytes<4925] yes=307,no=308,missing=308
										307:leaf=0.396514863
										308:leaf=-0.0853968784
							104:[path_count<10] yes=157,no=158,missing=158
								157:leaf=0.747052789
								158:leaf=0.137911931
		6:[sizeBytes<144667] yes=11,no=12,missing=12
			11:[path_count<13] yes=21,no=22,missing=22
				21:[resourceType<8] yes=37,no=38,missing=37
					37:[status<429] yes=65,no=66,missing=66
						65:[sizeBytes<65968] yes=105,no=106,missing=106
							105:[resourceType<6] yes=159,no=160,missing=159
								159:[application_json<1] yes=231,no=232,missing=232
									231:[url_length<59] yes=309,no=310,missing=310
										309:leaf=0.10977602
										310:leaf=-0.142654166
									232:leaf=-0.252992392
								160:[path_count<7] yes=233,no=234,missing=234
									233:[application_json<1] yes=311,no=312,missing=312
										311:leaf=-0.158620343
										312:leaf=0.0131308353
									234:[path_count<9] yes=313,no=314,missing=314
										313:leaf=0.468033373
										314:leaf=-0.0176614877
							106:[text_javascript<1] yes=161,no=162,missing=162
								161:[url_length<60] yes=235,no=236,missing=236
									235:leaf=-0.16165261
									236:[url_length<94] yes=315,no=316,missing=316
										315:leaf=0.31314373
										316:leaf=-0.0361435898
								162:leaf=-0.19080852
						66:leaf=0.448546141
					38:[url_length<77] yes=67,no=68,missing=68
						67:leaf=0.563601136
						68:[sizeBytes<2] yes=107,no=108,missing=108
							107:leaf=0.276684165
							108:[image_webp<1] yes=163,no=164,missing=164
								163:[sizeBytes<9275] yes=237,no=238,missing=238
									237:leaf=-0.225700885
									238:[sizeBytes<10774] yes=317,no=318,missing=318
										317:leaf=0.137911931
										318:leaf=-0.201723456
								164:leaf=0.276684165
				22:leaf=0.586389244
			12:[sizeBytes<219212] yes=23,no=24,missing=24
				23:[url_length<102] yes=39,no=40,missing=40
					39:leaf=0.638446629
					40:leaf=0.15617536
				24:[url_length<149] yes=41,no=42,missing=42
					41:[url_length<124] yes=69,no=70,missing=70
						69:[sizeBytes<335370] yes=109,no=110,missing=110
							109:leaf=0.018891206
							110:leaf=-0.2074368
						70:leaf=0.018891206
					42:leaf=0.55949533

0:[path_count<5] yes=1,no=2,missing=2
	1:[application_x_javascript<1] yes=3,no=4,missing=4
		3:[url_length<3538] yes=7,no=8,missing=8
			7:[image_gif<1] yes=15,no=16,missing=16
15:[isHttps] yes=29,no=30
					29:[url_length<76] yes=49,no=50,missing=50
						49:leaf=-0.0556678064
						50:[image_png<1] yes=83,no=84,missing=84
							83:[url_length<421] yes=131,no=132,missing=132
								131:leaf=-0.120961331
								132:leaf=0.309572518
							84:leaf=0.428759724
					30:[application_javascript<1] yes=51,no=52,missing=52
						51:[status<302] yes=85,no=86,missing=86
							85:[path_count<2] yes=133,no=134,missing=134
								133:[application_json<1] yes=199,no=200,missing=200
									199:[resourceType<6] yes=279,no=280,missing=280
										279:leaf=-0.14458178
										280:leaf=-0.216752812
									200:[sizeBytes<70] yes=281,no=282,missing=282
										281:leaf=0.091189526
										282:leaf=-0.211552575
								134:[resourceType<1] yes=201,no=202,missing=202
									201:[sizeBytes<2] yes=283,no=284,missing=284
										283:leaf=-0.10069976
										284:leaf=0.298292518
									202:[text_javascript<1] yes=285,no=286,missing=286
										285:leaf=-0.100945853
										286:leaf=0.0194154568
							86:[url_length<204] yes=135,no=136,missing=136
								135:[resourceType<2] yes=203,no=204,missing=204
									203:[status<304] yes=287,no=288,missing=288
										287:leaf=-0.0171580613
										288:leaf=0.298103303
									204:[url_length<53] yes=289,no=290,missing=290
										289:leaf=-0.0196810067
										290:leaf=-0.180152804
								136:[sizeBytes<456] yes=205,no=206,missing=206
									205:[resourceType<2] yes=291,no=292,missing=292
										291:leaf=0.166241437
										292:leaf=0.515624166
									206:leaf=-0.149934962
						52:[path_count<4] yes=87,no=88,missing=88
							87:[sizeBytes<97548] yes=137,no=138,missing=138
								137:[url_length<48] yes=207,no=208,missing=208
									207:[url_length<45] yes=293,no=294,missing=294
										293:leaf=-0.0368135236
										294:leaf=-0.184276566
									208:[url_length<55] yes=295,no=296,missing=296
										295:leaf=0.229608521
										296:leaf=-0.00323564443
								138:[url_length<75] yes=209,no=210,missing=210
									209:leaf=0.46744442
									210:leaf=-0.0711419508
							88:[sizeBytes<23] yes=139,no=140,missing=140
								139:[url_length<98] yes=211,no=212,missing=212
									211:[url_length<69] yes=297,no=298,missing=298
										297:leaf=0.17259039
										298:leaf=0.022275446
									212:leaf=-0.191247761
								140:[url_length<79] yes=213,no=214,missing=214
									213:leaf=-0.213946268
									214:[sizeBytes<2867] yes=299,no=300,missing=300
										299:leaf=-0.156878814
										300:leaf=0.00881874282
				16:[sizeBytes<38] yes=31,no=32,missing=32
					31:[resourceType<5] yes=53,no=54,missing=54
						53:[resourceType<2] yes=89,no=90,missing=90
							89:[path_count<2] yes=141,no=142,missing=142
								141:[url_length<1058] yes=215,no=216,missing=216
									215:leaf=-0.198493466
									216:leaf=0.0353387445
								142:[url_length<90] yes=217,no=218,missing=218
									217:[url_length<83] yes=301,no=302,missing=302
										301:leaf=0.042870421
										302:leaf=-0.132472426
									218:[url_length<151] yes=303,no=304,missing=304
										303:leaf=0.309168279
										304:leaf=0.080301486
							90:leaf=0.336461663
						54:leaf=-0.225866348
					32:[url_length<108] yes=55,no=56,missing=56
						55:[sizeBytes<6136] yes=91,no=92,missing=92
							91:[url_length<43] yes=143,no=144,missing=144
								143:leaf=0.103891492
								144:leaf=0.361974359
							92:leaf=-0.0606688224
						56:[url_length<511] yes=93,no=94,missing=94
							93:[url_length<167] yes=145,no=146,missing=146
								145:[path_count<2] yes=219,no=220,missing=220
									219:leaf=0.030933613
									220:leaf=-0.160336331
								146:leaf=-0.204528689
							94:[sizeBytes<43] yes=147,no=148,missing=148
								147:leaf=0.367858142
								148:[path_count<2] yes=221,no=222,missing=222
									221:[url_length<882] yes=305,no=306,missing=306
										305:leaf=0.13061969
										306:leaf=-0.132472426
									222:leaf=-0.15559715
			8:leaf=0.423952073
		4:[url_length<109] yes=9,no=10,missing=10
			9:[url_length<38] yes=17,no=18,missing=18
				17:leaf=0.131622061
				18:[sizeBytes<11854] yes=33,no=34,missing=34
					33:[url_length<51] yes=57,no=58,missing=58
						57:leaf=-0.186448082
						58:leaf=-0.0602133982
					34:leaf=0.103486434
			10:[sizeBytes<294] yes=19,no=20,missing=20
				19:leaf=0.166898176
				20:leaf=0.457756341
	2:[image_jpeg<1] yes=5,no=6,missing=6
		5:[url_length<86] yes=11,no=12,missing=12
			11:[path_count<6] yes=21,no=22,missing=22
				21:[resourceType<8] yes=35,no=36,missing=36
					35:[resourceType<2] yes=59,no=60,missing=60
						59:[url_length<74] yes=95,no=96,missing=96
							95:[url_length<69] yes=149,no=150,missing=150
								149:[sizeBytes<4641] yes=223,no=224,missing=224
									223:[url_length<66] yes=307,no=308,missing=308
										307:leaf=-0.185304731
										308:leaf=-0.0825572908
									224:[sizeBytes<103061] yes=309,no=310,missing=310
										309:leaf=0.0772891194
										310:leaf=-0.119472578
								150:[sizeBytes<8598] yes=225,no=226,missing=226
									225:[sizeBytes<2] yes=311,no=312,missing=312
										311:leaf=0.098961167
										312:leaf=0.319830656
									226:leaf=-0.184097409
							96:[sizeBytes<10949] yes=151,no=152,missing=152
								151:[url_length<81] yes=227,no=228,missing=228
									227:leaf=0.264774084
									228:[url_length<82] yes=313,no=314,missing=314
										313:leaf=0.012038148
										314:leaf=0.168227181
								152:[image_png<1] yes=229,no=230,missing=230
									229:[sizeBytes<58631] yes=315,no=316,missing=316
										315:leaf=-0.00551426178
										316:leaf=0.285000294
									230:[url_length<82] yes=317,no=318,missing=318
										317:leaf=-0.171077222
										318:leaf=0.0587984435
						60:[application_javascript<1] yes=97,no=98,missing=98
							97:[url_length<59] yes=153,no=154,missing=154
								153:[text_javascript<1] yes=231,no=232,missing=232
									231:[url_length<53] yes=319,no=320,missing=320
										319:leaf=-0.145799562
										320:leaf=0.366298139
									232:leaf=-0.16096361
								154:[url_length<73] yes=233,no=234,missing=234
									233:[sizeBytes<39536] yes=321,no=322,missing=322
										321:leaf=-0.205971047
										322:leaf=-0.0626316592
									234:[url_length<76] yes=323,no=324,missing=324
										323:leaf=0.0128229931
										324:leaf=-0.149703711
							98:[url_length<68] yes=155,no=156,missing=156
								155:leaf=0.361743867
								156:[sizeBytes<73645] yes=235,no=236,missing=236
									235:[sizeBytes<2] yes=325,no=326,missing=326
										325:leaf=-0.0777743235
										326:leaf=-0.196752712
									236:leaf=0.239900231
					36:[sizeBytes<11385] yes=61,no=62,missing=62
						61:leaf=-0.212703854
						62:leaf=0.439640135
				22:[status<307] yes=37,no=38,missing=38
					37:[sizeBytes<61444] yes=63,no=64,missing=64
						63:[resourceType<7] yes=99,no=100,missing=100
							99:[url_length<65] yes=157,no=158,missing=158
								157:leaf=-0.0334093347
								158:[sizeBytes<387] yes=237,no=238,missing=238
									237:[sizeBytes<294] yes=327,no=328,missing=328
										327:leaf=-0.189754933
										328:leaf=0.0204107594
									238:[sizeBytes<53878] yes=329,no=330,missing=330
										329:leaf=-0.245182946
										330:leaf=-0.0801231414
							100:[sizeBytes<5415] yes=159,no=160,missing=160
								159:leaf=0.133019105
								160:leaf=-0.12829338
						64:[text_javascript<1] yes=101,no=102,missing=102
							101:[url_length<83] yes=161,no=162,missing=162
								161:[url_length<80] yes=239,no=240,missing=240
									239:leaf=0.221479103
									240:leaf=-0.0421781354
								162:leaf=0.370238453
							102:leaf=-0.147446796
					38:leaf=0.385657936
			12:[url_length<256] yes=23,no=24,missing=24
				23:[path_count<11] yes=39,no=40,missing=40
					39:[path_count<8] yes=65,no=66,missing=66
						65:[sizeBytes<23752] yes=103,no=104,missing=104
							103:[url_length<138] yes=163,no=164,missing=164
								163:[url_length<99] yes=241,no=242,missing=242
									241:[image_webp<1] yes=331,no=332,missing=332
										331:leaf=-0.0338734649
										332:leaf=0.225400433
									242:[path_count<7] yes=333,no=334,missing=334
										333:leaf=-0.0904664621
										334:leaf=-0.18921347
								164:[resourceType<2] yes=243,no=244,missing=244
									243:[x_datadog_parent_id<1] yes=335,no=336,missing=336
										335:leaf=0.316972286
										336:leaf=-0.123166718
									244:[resourceType<6] yes=337,no=338,missing=338
										337:leaf=-0.215055987
										338:leaf=-0.0272394605
							104:[x_guploader_uploadid<1] yes=165,no=166,missing=166
								165:[text_javascript<1] yes=245,no=246,missing=246
									245:[path_count<7] yes=339,no=340,missing=340
										339:leaf=0.23901616
										340:leaf=0.0562099293
									246:leaf=-0.199006423
								166:[path_count<6] yes=247,no=248,missing=248
									247:leaf=-0.0376009122
									248:leaf=-0.216726452
						66:[image_webp<1] yes=105,no=106,missing=106
							105:[url_length<118] yes=167,no=168,missing=168
								167:[resourceType<4] yes=249,no=250,missing=250
									249:[url_length<92] yes=341,no=342,missing=342
										341:leaf=0.0798645914
										342:leaf=-0.209103152
									250:[url_length<107] yes=343,no=344,missing=344
										343:leaf=0.270402431
										344:leaf=-0.0359388962
								168:[resourceType<2] yes=251,no=252,missing=252
									251:leaf=0.524545848
									252:[url_length<187] yes=345,no=346,missing=346
										345:leaf=-0.0319840722
										346:leaf=0.327021897
							106:[sizeBytes<1268] yes=169,no=170,missing=170
								169:leaf=0.0373388864
								170:[url_length<129] yes=253,no=254,missing=254
									253:leaf=0.474475116
									254:[url_length<177] yes=347,no=348,missing=348
										347:leaf=0.189988494
										348:leaf=0.418242306
					40:[sizeBytes<52152] yes=67,no=68,missing=68
						67:[url_length<204] yes=107,no=108,missing=108
							107:[path_count<12] yes=171,no=172,missing=172
								171:leaf=-0.213353753
								172:leaf=-0.109518684
							108:[url_length<226] yes=173,no=174,missing=174
								173:leaf=0.108528316
								174:[url_length<240] yes=255,no=256,missing=256
									255:[path_count<13] yes=349,no=350,missing=350
										349:leaf=-0.0389061049
										350:leaf=-0.194452286
									256:leaf=0.00142450782
						68:[url_length<201] yes=109,no=110,missing=110
							109:leaf=0.216688514
							110:[sizeBytes<70335] yes=175,no=176,missing=176
								175:leaf=-0.112933949
								176:leaf=0.0087528443
				24:[path_count<8] yes=41,no=42,missing=42
41:[isHttps] yes=69,no=70
						69:[image_png<1] yes=111,no=112,missing=112
							111:leaf=-0.0814878196
							112:leaf=0.41708985
						70:[image_gif<1] yes=113,no=114,missing=114
							113:[url_length<289] yes=177,no=178,missing=178
								177:leaf=-0.0501007698
								178:leaf=-0.219371065
							114:leaf=0.171807259
					42:[path_count<20] yes=71,no=72,missing=72
						71:[sizeBytes<1711] yes=115,no=116,missing=116
							115:[image_png<1] yes=179,no=180,missing=180
								179:leaf=-0.0611316264
								180:leaf=0.320134014
							116:leaf=0.421819448
						72:[sizeBytes<2] yes=117,no=118,missing=118
							117:leaf=0.421203613
							118:[sizeBytes<10316] yes=181,no=182,missing=182
								181:leaf=-0.154227003
								182:[sizeBytes<17421] yes=257,no=258,missing=258
									257:leaf=0.0924055576
									258:leaf=-0.0916120335
		6:[sizeBytes<2] yes=13,no=14,missing=14
			13:[path_count<6] yes=25,no=26,missing=26
				25:[url_length<129] yes=43,no=44,missing=44
					43:leaf=0.485481828
					44:[url_length<132] yes=73,no=74,missing=74
						73:leaf=0.0108804861
						74:leaf=0.0738361701
				26:leaf=-0.202748403
			14:[sizeBytes<56812] yes=27,no=28,missing=28
				27:[sizeBytes<17421] yes=45,no=46,missing=46
					45:[sizeBytes<6267] yes=75,no=76,missing=76
						75:[path_count<8] yes=119,no=120,missing=120
							119:[url_length<126] yes=183,no=184,missing=184
								183:[url_length<109] yes=259,no=260,missing=260
									259:[sizeBytes<2464] yes=351,no=352,missing=352
										351:leaf=-0.158163518
										352:leaf=0.230002478
									260:leaf=0.457296431
								184:leaf=-0.0366274565
							120:leaf=-0.182835147
						76:[url_length<108] yes=121,no=122,missing=122
							121:[url_length<90] yes=185,no=186,missing=186
								185:[sizeBytes<10526] yes=261,no=262,missing=262
									261:[sizeBytes<10035] yes=353,no=354,missing=354
										353:leaf=-0.112857081
										354:leaf=0.148575082
									262:leaf=-0.175754145
								186:[sizeBytes<8457] yes=263,no=264,missing=264
									263:[path_count<7] yes=355,no=356,missing=356
										355:leaf=-0.169225082
										356:leaf=-0.0453709885
									264:[url_length<99] yes=357,no=358,missing=358
										357:leaf=0.22482343
										358:leaf=0.035987936
							122:[sizeBytes<12953] yes=187,no=188,missing=188
								187:leaf=-0.239470646
								188:leaf=-0.0569125526
					46:[url_length<93] yes=77,no=78,missing=78
						77:[url_length<86] yes=123,no=124,missing=124
							123:[url_length<74] yes=189,no=190,missing=190
								189:[url_length<73] yes=265,no=266,missing=266
									265:[url_length<66] yes=359,no=360,missing=360
										359:leaf=-0.080466263
										360:leaf=0.266599387
									266:[sizeBytes<28414] yes=361,no=362,missing=362
										361:leaf=0.0669461936
										362:leaf=-0.239536151
								190:[sizeBytes<23174] yes=267,no=268,missing=268
									267:leaf=0.117771208
									268:leaf=0.388216287
							124:[url_length<90] yes=191,no=192,missing=192
								191:[sizeBytes<47882] yes=269,no=270,missing=270
									269:leaf=-0.222863913
									270:leaf=-0.0604224168
								192:[url_length<92] yes=271,no=272,missing=272
									271:leaf=0.138305351
									272:leaf=-0.202237368
						78:[url_length<111] yes=125,no=126,missing=126
							125:leaf=0.372615725
							126:[path_count<6] yes=193,no=194,missing=194
								193:[sizeBytes<32435] yes=273,no=274,missing=274
									273:[sizeBytes<22724] yes=363,no=364,missing=364
										363:leaf=0.0291309543
										364:leaf=-0.185726717
									274:leaf=0.015829619
								194:[url_length<131] yes=275,no=276,missing=276
									275:leaf=-0.0472053438
									276:leaf=0.241843373
				28:[url_length<88] yes=47,no=48,missing=48
					47:[sizeBytes<63748] yes=79,no=80,missing=80
						79:leaf=0.128877804
						80:leaf=0.417694181
					48:[path_count<7] yes=81,no=82,missing=82
						81:[url_length<91] yes=127,no=128,missing=128
							127:[sizeBytes<170883] yes=195,no=196,missing=196
								195:leaf=-0.189597771
								196:leaf=-0.00894511491
							128:[url_length<101] yes=197,no=198,missing=198
								197:leaf=0.400670111
								198:[url_length<131] yes=277,no=278,missing=278
									277:leaf=-0.162203595
									278:[sizeBytes<92816] yes=365,no=366,missing=366
										365:leaf=-0.00866406597
										366:leaf=0.110734165
						82:[url_length<100] yes=129,no=130,missing=130
							129:leaf=0.480186462
							130:leaf=0.0436409824

0:[is_image<1] yes=1,no=2,missing=2
	1:[url_length<3538] yes=3,no=4,missing=4
		3:[sizeBytes<144667] yes=7,no=8,missing=8
			7:[url_length<92] yes=13,no=14,missing=14
				13:[application_javascript<1] yes=25,no=26,missing=26
					25:[queryParam_num<4] yes=43,no=44,missing=44
						43:[image_jpeg<1] yes=69,no=70,missing=70
							69:[resourceType<2] yes=103,no=104,missing=104
								103:[queryParam_num<2] yes=157,no=158,missing=158
									157:[url_length<53] yes=231,no=232,missing=232
										231:leaf=-0.160701439
										232:leaf=-0.0290779211
									158:[url_length<88] yes=233,no=234,missing=234
										233:leaf=0.287948191
										234:leaf=-0.164352044
								104:[path_count<3] yes=159,no=160,missing=160
									159:[application_json<1] yes=235,no=236,missing=236
										235:leaf=-0.152038738
										236:leaf=-0.0636833534
									160:[url_length<53] yes=237,no=238,missing=238
										237:leaf=0.0913159028
										238:leaf=-0.114336468
							70:[sizeBytes<2] yes=105,no=106,missing=106
								105:leaf=0.00726715708
								106:[sizeBytes<76685] yes=161,no=162,missing=162
									161:leaf=-0.194803134
									162:[sizeBytes<92816] yes=239,no=240,missing=240
										239:leaf=0.146290898
										240:leaf=-0.148301452
						44:[sizeBytes<2] yes=71,no=72,missing=72
							71:leaf=0.04490133
							72:leaf=0.396691352
					26:[queryParam_num<2] yes=45,no=46,missing=46
						45:[resourceType<3] yes=73,no=74,missing=74
							73:[sizeBytes<73645] yes=107,no=108,missing=108
								107:[sizeBytes<5415] yes=163,no=164,missing=164
									163:[url_length<54] yes=241,no=242,missing=242
										241:leaf=0.0473680235
										242:leaf=-0.0667653307
									164:[url_length<82] yes=243,no=244,missing=244
										243:leaf=-0.156176493
										244:leaf=0.064045392
								108:[sizeBytes<124914] yes=165,no=166,missing=166
									165:[sizeBytes<103061] yes=245,no=246,missing=246
										245:leaf=0.0807732493
										246:leaf=0.331354976
									166:leaf=-0.166332409
							74:leaf=0.361727655
						46:leaf=0.498105824
				14:[application_x_javascript<1] yes=27,no=28,missing=28
					27:[text_javascript<1] yes=47,no=48,missing=48
						47:[url_length<421] yes=75,no=76,missing=76
							75:[url_length<98] yes=109,no=110,missing=110
								109:[url_length<97] yes=167,no=168,missing=168
									167:[url_length<94] yes=247,no=248,missing=248
										247:leaf=0.154013082
										248:leaf=-0.0362626053
									168:[sizeBytes<65] yes=249,no=250,missing=250
										249:leaf=0.0911794379
										250:leaf=0.294286221
								110:[sizeBytes<348] yes=169,no=170,missing=170
									169:[queryParam_num<14] yes=251,no=252,missing=252
										251:leaf=-0.0165920444
										252:leaf=-0.224046469
									170:[url_length<256] yes=253,no=254,missing=254
										253:leaf=-0.105240606
										254:leaf=-0.214203671
							76:[resourceType<6] yes=111,no=112,missing=112
								111:[queryParam_num<1] yes=171,no=172,missing=172
171:[isHttps] yes=255,no=256
										255:leaf=0.173590884
										256:leaf=0.434089571
									172:[queryParam_num<6] yes=257,no=258,missing=258
										257:leaf=-0.135865167
										258:leaf=0.110503294
								112:[resourceType<7] yes=173,no=174,missing=174
									173:leaf=-0.230403066
									174:[path_count<3] yes=259,no=260,missing=260
										259:leaf=0.147233173
										260:leaf=-0.182947993
						48:[path_count<5] yes=77,no=78,missing=78
							77:[path_count<2] yes=113,no=114,missing=114
								113:leaf=-0.167042717
								114:[url_length<109] yes=175,no=176,missing=176
									175:[url_length<107] yes=261,no=262,missing=262
										261:leaf=0.183955848
										262:leaf=-0.0326553695
									176:[sizeBytes<91] yes=263,no=264,missing=264
										263:leaf=-0.00691181142
										264:leaf=0.417656034
							78:[url_length<124] yes=115,no=116,missing=116
								115:[url_length<112] yes=177,no=178,missing=178
									177:leaf=-0.140016541
									178:leaf=0.199011624
								116:[sizeBytes<2546] yes=179,no=180,missing=180
									179:leaf=-0.0498785935
									180:leaf=-0.202747062
					28:[url_length<110] yes=49,no=50,missing=50
						49:leaf=-0.108751677
						50:[url_length<116] yes=79,no=80,missing=80
							79:leaf=0.366993189
							80:leaf=-0.00272040395
			8:[text_javascript<1] yes=15,no=16,missing=16
				15:[path_count<3] yes=29,no=30,missing=30
					29:[url_length<77] yes=51,no=52,missing=52
						51:[url_length<57] yes=81,no=82,missing=82
							81:[url_length<54] yes=117,no=118,missing=118
								117:leaf=-0.160147265
								118:leaf=-0.039761126
							82:leaf=0.205987722
						52:leaf=-0.209954292
					30:[url_length<51] yes=53,no=54,missing=54
						53:leaf=0.668650866
						54:[url_length<78] yes=83,no=84,missing=84
							83:[sizeBytes<219212] yes=119,no=120,missing=120
								119:leaf=-0.19950749
								120:leaf=0.0179824419
							84:[path_count<6] yes=121,no=122,missing=122
								121:[resourceType<2] yes=181,no=182,missing=182
									181:leaf=0.33976534
									182:[path_count<5] yes=265,no=266,missing=266
										265:leaf=-0.0234601106
										266:leaf=-0.161510989
								122:[sizeBytes<268458] yes=183,no=184,missing=184
									183:leaf=0.384259343
									184:[url_length<149] yes=267,no=268,missing=268
										267:leaf=-0.116233699
										268:leaf=0.352216303
				16:leaf=-0.20654808
		4:leaf=0.358038217
	2:[sizeBytes<104] yes=5,no=6,missing=6
		5:[url_length<112] yes=9,no=10,missing=10
			9:[url_length<49] yes=17,no=18,missing=18
				17:[x_guploader_uploadid<1] yes=31,no=32,missing=32
					31:leaf=-0.200251028
					32:leaf=0.334612101
				18:[path_count<6] yes=33,no=34,missing=34
					33:[url_length<107] yes=55,no=56,missing=56
						55:[path_count<4] yes=85,no=86,missing=86
							85:[path_count<3] yes=123,no=124,missing=124
								123:leaf=0.349077255
								124:[url_length<73] yes=185,no=186,missing=186
									185:leaf=0.115345314
									186:leaf=-0.147994116
							86:[queryParam_num<1] yes=125,no=126,missing=126
								125:[path_count<5] yes=187,no=188,missing=188
									187:leaf=0.516235471
									188:leaf=0.375128955
								126:leaf=0.104918562
						56:leaf=0.120830677
					34:leaf=-0.0442621969
			10:[queryParam_num<1] yes=19,no=20,missing=20
				19:leaf=0.244904995
				20:[sizeBytes<43] yes=35,no=36,missing=36
					35:leaf=-0.244101927
					36:[queryParam_num<8] yes=57,no=58,missing=58
						57:leaf=0.222792268
						58:leaf=0.0648209229
		6:[path_count<9] yes=11,no=12,missing=12
			11:[sizeBytes<31839] yes=21,no=22,missing=22
				21:[path_count<5] yes=37,no=38,missing=38
					37:[url_length<77] yes=59,no=60,missing=60
						59:[sizeBytes<5285] yes=87,no=88,missing=88
							87:[path_count<4] yes=127,no=128,missing=128
								127:[image_webp<1] yes=189,no=190,missing=190
									189:[url_length<69] yes=269,no=270,missing=270
										269:leaf=0.241191313
										270:leaf=-0.10384281
									190:[url_length<60] yes=271,no=272,missing=272
										271:leaf=-0.217314467
										272:leaf=0.101433091
								128:[sizeBytes<2546] yes=191,no=192,missing=192
									191:leaf=-0.223467901
									192:leaf=-0.0243962128
							88:[url_length<72] yes=129,no=130,missing=130
								129:leaf=-0.18030785
								130:[sizeBytes<13530] yes=193,no=194,missing=194
									193:[url_length<76] yes=273,no=274,missing=274
										273:leaf=-0.133502707
										274:leaf=0.0584653132
									194:leaf=0.129979923
						60:[binary_octet_stream<1] yes=89,no=90,missing=90
							89:[url_length<240] yes=131,no=132,missing=132
								131:[sizeBytes<23174] yes=195,no=196,missing=196
									195:[sizeBytes<7113] yes=275,no=276,missing=276
										275:leaf=-0.179877937
										276:leaf=-0.234481171
									196:[sizeBytes<26004] yes=277,no=278,missing=278
										277:leaf=-0.00977165345
										278:leaf=-0.169738516
								132:leaf=0.0260517094
							90:[url_length<110] yes=133,no=134,missing=134
								133:leaf=-0.152038723
								134:leaf=0.117604792
					38:[queryParam_num<1] yes=61,no=62,missing=62
						61:[url_length<132] yes=91,no=92,missing=92
							91:[path_count<6] yes=135,no=136,missing=136
								135:[image_webp<1] yes=197,no=198,missing=198
									197:[sizeBytes<23174] yes=279,no=280,missing=280
										279:leaf=0.0605522208
										280:leaf=0.213662192
									198:[sizeBytes<1058] yes=281,no=282,missing=282
										281:leaf=0.218607783
										282:leaf=-0.165888816
								136:[url_length<91] yes=199,no=200,missing=200
									199:leaf=-0.228800535
									200:[url_length<109] yes=283,no=284,missing=284
										283:leaf=-0.0430812165
										284:leaf=-0.200140104
							92:[image_webp<1] yes=137,no=138,missing=138
								137:[url_length<149] yes=201,no=202,missing=202
									201:leaf=0.00818607491
									202:leaf=0.197998852
								138:[sizeBytes<4086] yes=203,no=204,missing=204
									203:[path_count<7] yes=285,no=286,missing=286
										285:leaf=0.281601012
										286:leaf=0.0101009747
									204:leaf=0.416658074
						62:[url_length<99] yes=93,no=94,missing=94
							93:[image_webp<1] yes=139,no=140,missing=140
								139:[url_length<90] yes=205,no=206,missing=206
									205:[path_count<6] yes=287,no=288,missing=288
										287:leaf=0.31930849
										288:leaf=-0.147939071
									206:leaf=0.322308987
								140:leaf=0.413056433
							94:[image_webp<1] yes=141,no=142,missing=142
								141:[sizeBytes<12322] yes=207,no=208,missing=208
									207:[image_png<1] yes=289,no=290,missing=290
										289:leaf=-0.208634883
										290:leaf=-0.0715113953
									208:[image_jpeg<1] yes=291,no=292,missing=292
										291:leaf=-0.173890039
										292:leaf=0.122845963
								142:[x_guploader_uploadid<1] yes=209,no=210,missing=210
									209:[queryParam_num<4] yes=293,no=294,missing=294
										293:leaf=-0.00226650084
										294:leaf=0.45621562
									210:[url_length<167] yes=295,no=296,missing=296
										295:leaf=-0.20936726
										296:leaf=-0.0550993495
				22:[url_length<91] yes=39,no=40,missing=40
					39:[path_count<7] yes=63,no=64,missing=64
						63:[sizeBytes<45350] yes=95,no=96,missing=96
							95:[url_length<75] yes=143,no=144,missing=144
								143:[url_length<54] yes=211,no=212,missing=212
									211:leaf=-0.0309748482
									212:leaf=-0.218732148
								144:[url_length<79] yes=213,no=214,missing=214
									213:leaf=0.217747852
									214:[path_count<6] yes=297,no=298,missing=298
										297:leaf=-0.0332908593
										298:leaf=-0.18063426
							96:[url_length<88] yes=145,no=146,missing=146
								145:[image_jpeg<1] yes=215,no=216,missing=216
									215:[url_length<65] yes=299,no=300,missing=300
										299:leaf=-0.11113888
										300:leaf=0.0249460619
									216:[path_count<4] yes=301,no=302,missing=302
										301:leaf=0.00551643549
										302:leaf=0.240512356
								146:[url_length<89] yes=217,no=218,missing=218
									217:[sizeBytes<68382] yes=303,no=304,missing=304
										303:leaf=-0.10857635
										304:leaf=0.0382863507
									218:[sizeBytes<335370] yes=305,no=306,missing=306
										305:leaf=-0.220059797
										306:leaf=-0.0548850708
						64:leaf=0.359235704
					40:[url_length<100] yes=65,no=66,missing=66
						65:[url_length<93] yes=97,no=98,missing=98
							97:[image_png<1] yes=147,no=148,missing=148
								147:[sizeBytes<108098] yes=219,no=220,missing=220
									219:leaf=0.133024797
									220:leaf=-0.0981458351
								148:leaf=0.24462536
							98:[image_png<1] yes=149,no=150,missing=150
								149:leaf=0.416493624
								150:leaf=0.0825177953
						66:[path_count<3] yes=99,no=100,missing=100
							99:[image_webp<1] yes=151,no=152,missing=152
								151:leaf=0.686645985
								152:[url_length<156] yes=221,no=222,missing=222
									221:leaf=-0.168344483
									222:leaf=0.0529624708
							100:[path_count<5] yes=153,no=154,missing=154
								153:[image_png<1] yes=223,no=224,missing=224
									223:[path_count<4] yes=307,no=308,missing=308
										307:leaf=-0.200165972
										308:leaf=-0.0625393391
									224:leaf=0.140836343
								154:[sizeBytes<137310] yes=225,no=226,missing=226
									225:[url_length<131] yes=309,no=310,missing=310
										309:leaf=0.0832678676
										310:leaf=0.266596884
									226:[path_count<7] yes=311,no=312,missing=312
										311:leaf=0.0249546226
										312:leaf=-0.156284869
			12:[path_count<11] yes=23,no=24,missing=24
				23:leaf=0.388969064
				24:[url_length<256] yes=41,no=42,missing=42
					41:[sizeBytes<52152] yes=67,no=68,missing=68
						67:[path_count<14] yes=101,no=102,missing=102
							101:[sizeBytes<6267] yes=155,no=156,missing=156
								155:[sizeBytes<5048] yes=227,no=228,missing=228
									227:leaf=-0.177456215
									228:leaf=0.0415821709
								156:[url_length<204] yes=229,no=230,missing=230
									229:leaf=-0.218115523
									230:[sizeBytes<12142] yes=313,no=314,missing=314
										313:leaf=-0.135440245
										314:leaf=0.0929117128
							102:leaf=0.0450835936
						68:leaf=0.109154344
					42:leaf=0.302268595

0:[is_image<1] yes=1,no=2,missing=2
	1:[url_length<3538] yes=3,no=4,missing=4
		3:[image_jpeg<1] yes=7,no=8,missing=8
			7:[resourceType<3] yes=13,no=14,missing=14
				13:[image_webp<1] yes=25,no=26,missing=26
					25:[url_length<86] yes=45,no=46,missing=46
						45:[queryParam_num<2] yes=77,no=78,missing=78
							77:[sizeBytes<31839] yes=127,no=128,missing=128
								127:[sizeBytes<16602] yes=199,no=200,missing=200
									199:[sizeBytes<15725] yes=291,no=292,missing=292
										291:leaf=-0.0654464811
										292:leaf=0.356931895
									200:[sizeBytes<27792] yes=293,no=294,missing=294
										293:leaf=-0.204460382
										294:leaf=-0.0707777366
								128:[path_count<3] yes=201,no=202,missing=202
									201:[url_length<57] yes=295,no=296,missing=296
										295:leaf=-0.215623602
										296:leaf=0.0644414052
									202:[path_count<4] yes=297,no=298,missing=298
										297:leaf=0.326651514
										298:leaf=-0.0743280277
							78:[path_count<2] yes=129,no=130,missing=130
								129:[image_gif<1] yes=203,no=204,missing=204
									203:leaf=0.358628809
									204:leaf=0.016415054
								130:[sizeBytes<46] yes=205,no=206,missing=206
									205:[url_length<60] yes=299,no=300,missing=300
										299:leaf=0.239763692
										300:leaf=0.0302038677
									206:leaf=-0.1924918
						46:[application_javascript<1] yes=79,no=80,missing=80
							79:[sizeBytes<165953] yes=131,no=132,missing=132
								131:[sizeBytes<86497] yes=207,no=208,missing=208
									207:[application_x_javascript<1] yes=301,no=302,missing=302
										301:leaf=0.0366999432
										302:leaf=0.199608907
									208:[path_count<5] yes=303,no=304,missing=304
										303:leaf=-0.226485208
										304:leaf=0.0403466038
								132:[url_length<102] yes=209,no=210,missing=210
									209:[sizeBytes<278639] yes=305,no=306,missing=306
										305:leaf=0.324081451
										306:leaf=0.051070597
									210:leaf=-0.0968244672
							80:[sizeBytes<1841] yes=133,no=134,missing=134
								133:[path_count<2] yes=211,no=212,missing=212
									211:leaf=0.0571619757
									212:[url_length<107] yes=307,no=308,missing=308
										307:leaf=-0.0818561837
										308:leaf=-0.149236426
								134:[sizeBytes<5415] yes=213,no=214,missing=214
									213:[sizeBytes<2973] yes=309,no=310,missing=310
										309:leaf=0.0393627919
										310:leaf=0.377186418
									214:[sizeBytes<58631] yes=311,no=312,missing=312
										311:leaf=-0.128417179
										312:leaf=0.080984965
					26:[queryParam_num<4] yes=47,no=48,missing=48
						47:[sizeBytes<151425] yes=81,no=82,missing=82
							81:[path_count<3] yes=135,no=136,missing=136
								135:leaf=-0.225227147
								136:[queryParam_num<2] yes=215,no=216,missing=216
									215:[url_length<93] yes=313,no=314,missing=314
										313:leaf=0.0357961915
										314:leaf=-0.174069241
									216:[sizeBytes<5415] yes=315,no=316,missing=316
										315:leaf=0.119244672
										316:leaf=-0.0264911335
							82:leaf=0.0304557774
						48:leaf=0.0249340665
				14:[resourceType<4] yes=27,no=28,missing=27
					27:[sizeBytes<65968] yes=49,no=50,missing=50
						49:[url_length<101] yes=83,no=84,missing=84
							83:[path_count<5] yes=137,no=138,missing=138
								137:[sizeBytes<4516] yes=217,no=218,missing=218
									217:[url_length<63] yes=317,no=318,missing=318
										317:leaf=0.151593924
										318:leaf=-0.128611341
									218:[queryParam_num<1] yes=319,no=320,missing=320
										319:leaf=-0.23604022
										320:leaf=-0.0378104858
								138:[sizeBytes<37118] yes=219,no=220,missing=220
									219:leaf=-0.183147535
									220:leaf=0.192692414
							84:[url_length<121] yes=139,no=140,missing=140
								139:[url_length<118] yes=221,no=222,missing=222
									221:[sizeBytes<22724] yes=321,no=322,missing=322
										321:leaf=-0.170277864
										322:leaf=0.100993074
									222:leaf=0.249672532
								140:leaf=-0.213936135
						50:[path_count<3] yes=85,no=86,missing=86
							85:leaf=0.242081761
							86:[path_count<5] yes=141,no=142,missing=142
								141:[path_count<4] yes=223,no=224,missing=224
									223:leaf=-0.0331662409
									224:leaf=-0.190782502
								142:leaf=0.0151514979
					28:[path_count<7] yes=51,no=52,missing=52
						51:[queryParam_num<11] yes=87,no=88,missing=88
							87:[sizeBytes<19998] yes=143,no=144,missing=144
								143:[resourceType<7] yes=225,no=226,missing=226
									225:[application_javascript<1] yes=323,no=324,missing=324
										323:leaf=-0.0834221244
										324:leaf=0.158613309
									226:[path_count<6] yes=325,no=326,missing=326
										325:leaf=-0.207600668
										326:leaf=0.0595584922
								144:[sizeBytes<23876] yes=227,no=228,missing=228
									227:leaf=0.382255167
									228:[sizeBytes<37118] yes=327,no=328,missing=328
										327:leaf=0.0635596439
										328:leaf=-0.155711874
							88:[queryParam_num<14] yes=145,no=146,missing=146
								145:[path_count<2] yes=229,no=230,missing=230
									229:[url_length<337] yes=329,no=330,missing=330
										329:leaf=0.211756542
										330:leaf=-0.128681704
									230:leaf=0.461872786
								146:[sizeBytes<8] yes=231,no=232,missing=232
									231:[url_length<1844] yes=331,no=332,missing=332
										331:leaf=-0.192832991
										332:leaf=0.125374347
									232:[sizeBytes<104] yes=333,no=334,missing=334
										333:leaf=0.353853196
										334:leaf=-0.1325697
						52:[url_length<187] yes=89,no=90,missing=90
							89:[path_count<8] yes=147,no=148,missing=148
								147:[url_length<109] yes=233,no=234,missing=234
									233:leaf=-0.150498167
									234:leaf=-0.0412840992
								148:[url_length<121] yes=235,no=236,missing=236
									235:[url_length<106] yes=335,no=336,missing=336
										335:leaf=0.249463275
										336:leaf=0.0670311525
									236:[path_count<9] yes=337,no=338,missing=338
										337:leaf=0.0379623324
										338:leaf=-0.151278421
							90:[url_length<229] yes=149,no=150,missing=150
								149:leaf=0.383416444
								150:leaf=-0.149415597
			8:[path_count<6] yes=15,no=16,missing=16
				15:[queryParam_num<1] yes=29,no=30,missing=30
					29:[url_length<92] yes=53,no=54,missing=54
						53:[sizeBytes<2] yes=91,no=92,missing=92
							91:leaf=-0.028479863
							92:[sizeBytes<61444] yes=151,no=152,missing=152
								151:leaf=-0.173365548
								152:[sizeBytes<89478] yes=237,no=238,missing=238
									237:leaf=0.162703216
									238:leaf=-0.199348196
						54:[path_count<3] yes=93,no=94,missing=94
							93:leaf=-0.128090605
							94:leaf=0.0668297857
					30:[url_length<161] yes=55,no=56,missing=56
						55:leaf=-0.234309793
						56:leaf=-0.0839319155
				16:[sizeBytes<2] yes=31,no=32,missing=32
					31:leaf=-0.182957336
					32:leaf=0.392504781
		4:leaf=0.318951488
	2:[sizeBytes<65] yes=5,no=6,missing=6
		5:[url_length<112] yes=9,no=10,missing=10
			9:[url_length<33] yes=17,no=18,missing=18
				17:leaf=-0.139744133
				18:[path_count<4] yes=33,no=34,missing=34
					33:[sizeBytes<38] yes=57,no=58,missing=58
						57:[path_count<2] yes=95,no=96,missing=96
							95:leaf=0.15235506
							96:leaf=-0.0971049443
						58:[url_length<61] yes=97,no=98,missing=98
							97:[url_length<36] yes=153,no=154,missing=154
								153:leaf=0.248646453
								154:leaf=0.051861424
							98:leaf=0.324812859
					34:[queryParam_num<1] yes=59,no=60,missing=60
						59:leaf=0.330300182
						60:leaf=0.0786859766
			10:[queryParam_num<1] yes=19,no=20,missing=20
				19:leaf=0.194750413
				20:[sizeBytes<43] yes=35,no=36,missing=36
					35:leaf=-0.226859257
					36:[queryParam_num<10] yes=61,no=62,missing=62
						61:leaf=0.285563469
						62:leaf=-0.140045494
		6:[path_count<5] yes=11,no=12,missing=12
			11:[queryParam_num<2] yes=21,no=22,missing=22
				21:[sizeBytes<49754] yes=37,no=38,missing=38
					37:[sizeBytes<7295] yes=63,no=64,missing=64
						63:[path_count<4] yes=99,no=100,missing=100
							99:[sizeBytes<654] yes=155,no=156,missing=156
								155:[sizeBytes<423] yes=239,no=240,missing=240
									239:[image_png<1] yes=339,no=340,missing=340
										339:leaf=-0.0351852812
										340:leaf=-0.144572601
									240:leaf=0.418242514
								156:[image_webp<1] yes=241,no=242,missing=242
									241:[url_length<69] yes=341,no=342,missing=342
										341:leaf=0.069708325
										342:leaf=-0.0902618393
									242:[url_length<60] yes=343,no=344,missing=344
										343:leaf=-0.208156466
										344:leaf=-0.0239154734
							100:[sizeBytes<6267] yes=157,no=158,missing=158
								157:leaf=-0.187436506
								158:leaf=0.168625116
						64:[sizeBytes<25426] yes=101,no=102,missing=102
							101:[url_length<77] yes=159,no=160,missing=160
								159:[sizeBytes<10035] yes=243,no=244,missing=244
									243:[url_length<74] yes=345,no=346,missing=346
										345:leaf=-0.176141083
										346:leaf=-0.0457670651
									244:[path_count<3] yes=347,no=348,missing=348
										347:leaf=-0.19618167
										348:leaf=-0.0183762964
								160:leaf=-0.212096736
							102:[path_count<4] yes=161,no=162,missing=162
								161:[sizeBytes<29562] yes=245,no=246,missing=246
									245:[url_length<105] yes=349,no=350,missing=350
										349:leaf=0.059976913
										350:leaf=-0.042189315
									246:[image_png<1] yes=351,no=352,missing=352
										351:leaf=-0.195973843
										352:leaf=-0.0486372039
								162:[image_jpeg<1] yes=247,no=248,missing=248
									247:[url_length<161] yes=353,no=354,missing=354
										353:leaf=-0.159129858
										354:leaf=0.062788628
									248:leaf=0.27994439
					38:[image_webp<1] yes=65,no=66,missing=66
						65:[url_length<86] yes=103,no=104,missing=104
							103:[url_length<51] yes=163,no=164,missing=164
								163:[sizeBytes<73645] yes=249,no=250,missing=250
									249:leaf=-0.031710133
									250:leaf=-0.130789906
								164:[queryParam_num<1] yes=251,no=252,missing=252
									251:[path_count<4] yes=355,no=356,missing=356
										355:leaf=0.0282409843
										356:leaf=0.216529176
									252:leaf=-0.0929813534
							104:[url_length<126] yes=165,no=166,missing=166
								165:[image_png<1] yes=253,no=254,missing=254
									253:leaf=0.445947081
									254:leaf=0.129526392
								166:leaf=-0.0296530034
						66:[sizeBytes<120074] yes=105,no=106,missing=106
							105:[sizeBytes<56812] yes=167,no=168,missing=168
								167:leaf=-0.0477020629
								168:[url_length<187] yes=255,no=256,missing=256
									255:leaf=-0.192298129
									256:leaf=-0.0649070367
							106:leaf=0.072671257
				22:[url_length<226] yes=39,no=40,missing=40
					39:[image_webp<1] yes=67,no=68,missing=68
						67:[sizeBytes<79592] yes=107,no=108,missing=108
							107:leaf=-0.220859841
							108:leaf=-0.0371572115
						68:[path_count<2] yes=109,no=110,missing=110
							109:[url_length<154] yes=169,no=170,missing=170
								169:leaf=-0.122175865
								170:leaf=0.0180773307
							110:[queryParam_num<3] yes=171,no=172,missing=172
								171:[sizeBytes<6136] yes=257,no=258,missing=258
									257:leaf=0.0138628157
									258:leaf=-0.129027173
								172:[url_length<177] yes=259,no=260,missing=260
									259:leaf=-0.210569501
									260:[sizeBytes<2363] yes=357,no=358,missing=358
										357:leaf=-0.152434736
										358:leaf=0.0698729306
					40:leaf=0.136564583
			12:[queryParam_num<1] yes=23,no=24,missing=24
				23:[url_length<131] yes=41,no=42,missing=42
					41:[image_jpeg<1] yes=69,no=70,missing=70
						69:[path_count<6] yes=111,no=112,missing=112
							111:[image_webp<1] yes=173,no=174,missing=174
								173:[url_length<100] yes=261,no=262,missing=262
									261:[url_length<99] yes=359,no=360,missing=360
										359:leaf=0.0745462701
										360:leaf=-0.138860866
									262:leaf=0.421456158
								174:[sizeBytes<3149] yes=263,no=264,missing=264
									263:[sizeBytes<912] yes=361,no=362,missing=362
										361:leaf=0.136367798
										362:leaf=0.0115343286
									264:[sizeBytes<9275] yes=363,no=364,missing=364
										363:leaf=-0.0596736856
										364:leaf=-0.187400252
							112:[path_count<8] yes=175,no=176,missing=176
								175:[url_length<127] yes=265,no=266,missing=266
									265:[image_webp<1] yes=365,no=366,missing=366
										365:leaf=-0.221166283
										366:leaf=-0.147959203
									266:[sizeBytes<26004] yes=367,no=368,missing=368
										367:leaf=-0.125310376
										368:leaf=0.219926462
								176:[image_png<1] yes=267,no=268,missing=268
									267:leaf=0.311739653
									268:leaf=-0.0642303675
						70:[sizeBytes<65968] yes=113,no=114,missing=114
							113:[url_length<111] yes=177,no=178,missing=178
								177:[url_length<74] yes=269,no=270,missing=270
									269:[url_length<73] yes=369,no=370,missing=370
										369:leaf=0.0547094308
										370:leaf=-0.191397473
									270:[sizeBytes<19000] yes=371,no=372,missing=372
										371:leaf=-0.0291183051
										372:leaf=0.15999341
								178:leaf=-0.218004614
							114:[url_length<98] yes=179,no=180,missing=180
								179:[path_count<7] yes=271,no=272,missing=272
									271:[url_length<84] yes=373,no=374,missing=374
										373:leaf=0.261567146
										374:leaf=0.0465075001
									272:leaf=0.315218389
								180:leaf=-0.105711237
					42:[path_count<10] yes=71,no=72,missing=72
						71:[image_jpeg<1] yes=115,no=116,missing=116
							115:[sizeBytes<3593] yes=181,no=182,missing=182
								181:[url_length<140] yes=273,no=274,missing=274
									273:leaf=-0.0430176072
									274:leaf=0.208787903
								182:leaf=0.392957985
							116:[sizeBytes<12322] yes=183,no=184,missing=184
								183:leaf=-0.142710075
								184:leaf=-0.0011940113
						72:[url_length<256] yes=117,no=118,missing=118
							117:[sizeBytes<52152] yes=185,no=186,missing=186
								185:[url_length<201] yes=275,no=276,missing=276
									275:[sizeBytes<6267] yes=375,no=376,missing=376
										375:leaf=-0.0571475737
										376:leaf=-0.20513843
									276:[sizeBytes<12142] yes=377,no=378,missing=378
										377:leaf=-0.181484386
										378:leaf=0.189504609
								186:leaf=0.107953265
							118:[sizeBytes<6376] yes=187,no=188,missing=188
								187:leaf=0.0464877225
								188:[sizeBytes<22366] yes=277,no=278,missing=278
									277:leaf=0.298128575
									278:leaf=0.116150297
				24:[image_webp<1] yes=43,no=44,missing=44
					43:[url_length<99] yes=73,no=74,missing=74
						73:[url_length<91] yes=119,no=120,missing=120
							119:[path_count<6] yes=189,no=190,missing=190
								189:leaf=0.333285183
								190:[url_length<77] yes=279,no=280,missing=280
									279:leaf=-0.00655509159
									280:leaf=-0.210740551
							120:leaf=0.281212062
						74:[sizeBytes<17421] yes=121,no=122,missing=122
							121:[url_length<151] yes=191,no=192,missing=192
								191:[sizeBytes<1932] yes=281,no=282,missing=282
									281:leaf=-0.0278898161
									282:leaf=-0.185076281
								192:leaf=-0.018993726
							122:[url_length<149] yes=193,no=194,missing=194
								193:[image_png<1] yes=283,no=284,missing=284
									283:[sizeBytes<27296] yes=379,no=380,missing=380
										379:leaf=0.272300422
										380:leaf=0.0878508314
									284:[sizeBytes<70335] yes=381,no=382,missing=382
										381:leaf=-0.172295317
										382:leaf=-0.0482640229
								194:[sizeBytes<32435] yes=285,no=286,missing=286
									285:leaf=-0.193335548
									286:leaf=-0.0488571338
					44:[x_datadog_parent_id<1] yes=75,no=76,missing=76
						75:[url_length<204] yes=123,no=124,missing=124
							123:[sizeBytes<38568] yes=195,no=196,missing=196
								195:leaf=0.314589709
								196:[url_length<149] yes=287,no=288,missing=288
									287:[path_count<7] yes=383,no=384,missing=384
										383:leaf=0.300623775
										384:leaf=0.0257480871
									288:leaf=-0.166553542
							124:leaf=-0.123006545
						76:[path_count<8] yes=125,no=126,missing=126
							125:[sizeBytes<19000] yes=197,no=198,missing=198
								197:[sizeBytes<6640] yes=289,no=290,missing=290
									289:leaf=-0.191352129
									290:[sizeBytes<11854] yes=385,no=386,missing=386
										385:leaf=-0.00207235548
										386:leaf=0.15159592
								198:leaf=-0.195501715
							126:leaf=0.154903904

0:[is_image<1] yes=1,no=2,missing=2
1:[isHttps] yes=3,no=4
		3:[image_png<1] yes=7,no=8,missing=8
			7:[url_length<580] yes=15,no=16,missing=16
				15:[url_length<80] yes=29,no=30,missing=30
					29:[url_length<71] yes=53,no=54,missing=54
						53:leaf=0.0934682116
						54:leaf=-0.00286705233
					30:leaf=-0.223150522
				16:[resourceType<2] yes=31,no=32,missing=32
					31:[url_length<740] yes=55,no=56,missing=56
						55:leaf=-0.0108468737
						56:leaf=0.0641263649
					32:[url_length<3538] yes=57,no=58,missing=58
						57:leaf=0.0864485428
						58:leaf=0.247414827
			8:leaf=0.368270785
		4:[sizeBytes<144667] yes=9,no=10,missing=10
			9:[url_length<51] yes=17,no=18,missing=18
				17:[sizeBytes<17083] yes=33,no=34,missing=34
					33:[resourceType<5] yes=59,no=60,missing=60
						59:[url_length<36] yes=89,no=90,missing=90
							89:[resourceType<2] yes=133,no=134,missing=134
								133:[sizeBytes<212] yes=185,no=186,missing=186
									185:leaf=-0.169701174
									186:leaf=-0.0302715693
								134:[url_length<29] yes=187,no=188,missing=188
									187:leaf=-0.149460658
									188:[application_javascript<1] yes=257,no=258,missing=258
										257:leaf=0.283607781
										258:leaf=-0.0358372927
							90:[application_javascript<1] yes=135,no=136,missing=136
								135:[resourceType<1] yes=189,no=190,missing=190
									189:[sizeBytes<225] yes=259,no=260,missing=260
										259:leaf=-0.06788674
										260:leaf=0.317356735
									190:[url_length<41] yes=261,no=262,missing=262
										261:leaf=-0.0901642665
										262:leaf=-0.172225371
								136:[url_length<48] yes=191,no=192,missing=192
									191:[url_length<45] yes=263,no=264,missing=264
										263:leaf=0.00046357559
										264:leaf=-0.150134608
									192:[sizeBytes<70] yes=265,no=266,missing=266
										265:leaf=0.139251232
										266:leaf=-0.083811067
						60:[status<203] yes=91,no=92,missing=92
							91:[sizeBytes<995] yes=137,no=138,missing=138
								137:[url_length<50] yes=193,no=194,missing=194
									193:[sizeBytes<198] yes=267,no=268,missing=268
										267:leaf=-0.206952378
										268:leaf=-0.0947603434
									194:leaf=-0.0620239154
								138:leaf=0.118162766
							92:[resourceType<7] yes=139,no=140,missing=140
								139:[url_length<29] yes=195,no=196,missing=196
									195:leaf=-0.0686922222
									196:[url_length<38] yes=269,no=270,missing=270
										269:leaf=0.0739113241
										270:leaf=0.300359339
								140:leaf=-0.181059599
					34:[text_javascript<1] yes=61,no=62,missing=62
						61:[resourceType<4] yes=93,no=94,missing=94
							93:leaf=-0.225650415
							94:leaf=-0.0621713772
						62:[url_length<42] yes=95,no=96,missing=96
							95:leaf=0.0244510435
							96:[url_length<46] yes=141,no=142,missing=142
								141:leaf=-0.196348146
								142:leaf=-0.0474628024
				18:[url_length<55] yes=35,no=36,missing=36
					35:[sizeBytes<35441] yes=63,no=64,missing=64
						63:[sizeBytes<29562] yes=97,no=98,missing=98
							97:[resourceType<5] yes=143,no=144,missing=144
								143:[resourceType<4] yes=197,no=198,missing=198
									197:[url_length<53] yes=271,no=272,missing=272
										271:leaf=0.165520892
										272:leaf=0.00671034306
									198:[sizeBytes<38] yes=273,no=274,missing=274
										273:leaf=0.565176249
										274:leaf=0.0449121892
								144:[sizeBytes<65] yes=199,no=200,missing=200
									199:leaf=-0.152985185
									200:leaf=0.110817388
							98:[application_javascript<1] yes=145,no=146,missing=146
								145:leaf=0.570163846
								146:leaf=0.168983027
						64:[sizeBytes<76685] yes=99,no=100,missing=100
							99:[sizeBytes<51148] yes=147,no=148,missing=148
								147:leaf=-0.151411295
								148:leaf=0.150112644
							100:leaf=-0.185934335
					36:[status<302] yes=65,no=66,missing=66
						65:[application_x_javascript<1] yes=101,no=102,missing=102
							101:[url_length<665] yes=149,no=150,missing=150
								149:[application_javascript<1] yes=201,no=202,missing=202
									201:[url_length<56] yes=275,no=276,missing=276
										275:leaf=0.256416172
										276:leaf=-0.073847644
									202:[url_length<56] yes=277,no=278,missing=278
										277:leaf=-0.195217311
										278:leaf=-0.00715376297
								150:[sizeBytes<18] yes=203,no=204,missing=204
									203:[status<201] yes=279,no=280,missing=280
										279:leaf=-0.159487963
										280:leaf=0.032121256
									204:[resourceType<3] yes=281,no=282,missing=282
										281:leaf=0.0308767203
										282:leaf=0.223450586
							102:[url_length<110] yes=151,no=152,missing=152
								151:[url_length<65] yes=205,no=206,missing=206
									205:leaf=0.141676679
									206:leaf=-0.2122439
								152:[url_length<116] yes=207,no=208,missing=208
									207:leaf=0.280708611
									208:leaf=-0.0110570425
						66:[sizeBytes<91] yes=103,no=104,missing=104
							103:[url_length<200] yes=153,no=154,missing=154
								153:[resourceType<2] yes=209,no=210,missing=210
									209:[queryParam_num<4] yes=283,no=284,missing=284
										283:leaf=0.178947613
										284:leaf=-0.117661528
									210:leaf=-0.174301714
								154:[resourceType<2] yes=211,no=212,missing=212
									211:[url_length<272] yes=285,no=286,missing=286
										285:leaf=0.11388848
										286:leaf=0.0129595548
									212:leaf=0.293243408
							104:[queryParam_num<6] yes=155,no=156,missing=156
								155:leaf=0.368763447
								156:[sizeBytes<387] yes=213,no=214,missing=214
									213:leaf=0.16557233
									214:leaf=-0.135426924
			10:[text_javascript<1] yes=19,no=20,missing=20
				19:[url_length<102] yes=37,no=38,missing=38
					37:[resourceType<3] yes=67,no=68,missing=68
						67:[url_length<84] yes=105,no=106,missing=106
							105:[url_length<51] yes=157,no=158,missing=158
								157:[sizeBytes<151425] yes=215,no=216,missing=216
									215:leaf=0.364584357
									216:leaf=0.04673931
								158:[sizeBytes<170883] yes=217,no=218,missing=218
									217:leaf=-0.176917449
									218:[url_length<81] yes=287,no=288,missing=288
										287:leaf=0.167033404
										288:leaf=-0.133445635
							106:leaf=0.257491887
						68:[url_length<68] yes=107,no=108,missing=108
							107:leaf=-0.149388179
							108:[sizeBytes<335370] yes=159,no=160,missing=160
								159:leaf=0.106523693
								160:leaf=-0.0543337166
					38:[url_length<154] yes=69,no=70,missing=70
						69:[url_length<107] yes=109,no=110,missing=110
							109:leaf=-0.0201689303
							110:leaf=-0.208910391
						70:[url_length<196] yes=111,no=112,missing=112
							111:leaf=0.291616648
							112:leaf=-0.171088949
				20:leaf=-0.18970798
	2:[sizeBytes<65] yes=5,no=6,missing=6
		5:[queryParam_num<4] yes=11,no=12,missing=12
			11:[status<201] yes=21,no=22,missing=22
				21:[url_length<113] yes=39,no=40,missing=40
					39:[url_length<45] yes=71,no=72,missing=72
						71:leaf=0.113521732
						72:leaf=0.290748119
					40:[queryParam_num<1] yes=73,no=74,missing=74
						73:leaf=0.222860739
						74:leaf=-0.166053146
				22:[url_length<67] yes=41,no=42,missing=42
					41:[queryParam_num<1] yes=75,no=76,missing=76
						75:leaf=-0.206854627
						76:leaf=0.0300991628
					42:leaf=0.0774134919
			12:[queryParam_num<10] yes=23,no=24,missing=24
				23:[sizeBytes<38] yes=43,no=44,missing=44
					43:leaf=-0.15805082
					44:leaf=0.169475302
				24:leaf=-0.21414268
		6:[sizeBytes<46757] yes=13,no=14,missing=14
			13:[url_length<256] yes=25,no=26,missing=26
				25:[queryParam_num<1] yes=45,no=46,missing=46
					45:[image_gif<1] yes=77,no=78,missing=78
						77:[url_length<63] yes=113,no=114,missing=114
							113:[sizeBytes<688] yes=161,no=162,missing=162
								161:[sizeBytes<581] yes=219,no=220,missing=220
									219:[sizeBytes<294] yes=289,no=290,missing=290
										289:leaf=-0.0511421263
										290:leaf=-0.175403267
									220:leaf=0.258868665
								162:[sizeBytes<39536] yes=221,no=222,missing=222
									221:[url_length<49] yes=291,no=292,missing=292
										291:leaf=-0.0532169901
										292:leaf=-0.14598912
									222:leaf=0.0405812152
							114:[url_length<73] yes=163,no=164,missing=164
								163:[sizeBytes<3262] yes=223,no=224,missing=224
									223:[url_length<67] yes=293,no=294,missing=294
										293:leaf=0.033145573
										294:leaf=0.280296624
									224:[url_length<70] yes=295,no=296,missing=296
										295:leaf=-0.0948471352
										296:leaf=0.174873948
								164:[url_length<84] yes=225,no=226,missing=226
									225:[sizeBytes<6376] yes=297,no=298,missing=298
										297:leaf=-0.159013703
										298:leaf=-0.0602546111
									226:[sizeBytes<23174] yes=299,no=300,missing=300
										299:leaf=-0.042571459
										300:leaf=0.0561309569
						78:[sizeBytes<3971] yes=115,no=116,missing=116
							115:leaf=0.0962820947
							116:leaf=0.29432258
					46:[image_webp<1] yes=79,no=80,missing=80
						79:[queryParam_num<2] yes=117,no=118,missing=118
							117:[url_length<99] yes=165,no=166,missing=166
								165:[url_length<90] yes=227,no=228,missing=228
									227:[url_length<78] yes=301,no=302,missing=302
										301:leaf=0.203410983
										302:leaf=-0.179429799
									228:leaf=0.291157693
								166:[sizeBytes<12322] yes=229,no=230,missing=230
									229:[image_png<1] yes=303,no=304,missing=304
										303:leaf=-0.166446149
										304:leaf=0.0154550476
									230:[image_png<1] yes=305,no=306,missing=306
										305:leaf=0.135431767
										306:leaf=-0.152412832
							118:[sizeBytes<18160] yes=167,no=168,missing=168
								167:[url_length<112] yes=231,no=232,missing=232
									231:leaf=-0.227079913
									232:[sizeBytes<470] yes=307,no=308,missing=308
										307:leaf=-0.195207998
										308:leaf=-0.096149765
								168:[queryParam_num<3] yes=233,no=234,missing=234
									233:[url_length<127] yes=309,no=310,missing=310
										309:leaf=-0.219940662
										310:leaf=-0.0564140454
									234:[url_length<140] yes=311,no=312,missing=312
										311:leaf=0.219786569
										312:leaf=-0.110713318
						80:[url_length<172] yes=119,no=120,missing=120
							119:[x_datadog_parent_id<1] yes=169,no=170,missing=170
								169:[sizeBytes<34305] yes=235,no=236,missing=236
									235:[url_length<104] yes=313,no=314,missing=314
										313:leaf=0.288188279
										314:leaf=0.173192084
									236:leaf=-0.114930347
								170:[sizeBytes<11854] yes=237,no=238,missing=238
									237:[sizeBytes<6640] yes=315,no=316,missing=316
										315:leaf=-0.174203977
										316:leaf=-0.0381153822
									238:[sizeBytes<20968] yes=317,no=318,missing=318
										317:leaf=0.214311466
										318:leaf=-0.12432833
							120:[queryParam_num<2] yes=171,no=172,missing=172
								171:[sizeBytes<17083] yes=239,no=240,missing=240
									239:[sizeBytes<6640] yes=319,no=320,missing=320
										319:leaf=-0.0494313017
										320:leaf=-0.189169809
									240:[sizeBytes<19998] yes=321,no=322,missing=322
										321:leaf=-0.0174409077
										322:leaf=-0.0782574341
								172:[sizeBytes<1473] yes=241,no=242,missing=242
									241:leaf=-0.176210985
									242:[x_datadog_parent_id<1] yes=323,no=324,missing=324
										323:leaf=0.110449485
										324:leaf=-0.0837984458
				26:[image_webp<1] yes=47,no=48,missing=48
					47:leaf=-0.137653694
					48:leaf=0.227511123
			14:[url_length<149] yes=27,no=28,missing=28
				27:[url_length<75] yes=49,no=50,missing=50
					49:[url_length<71] yes=81,no=82,missing=82
						81:[url_length<67] yes=121,no=122,missing=122
							121:[sizeBytes<165953] yes=173,no=174,missing=174
								173:[sizeBytes<97548] yes=243,no=244,missing=244
									243:[sizeBytes<86497] yes=325,no=326,missing=326
										325:leaf=-0.073835969
										326:leaf=0.133684233
									244:leaf=-0.176597849
								174:[image_png<1] yes=245,no=246,missing=246
									245:[url_length<63] yes=327,no=328,missing=328
										327:leaf=0.0800436959
										328:leaf=0.23636584
									246:leaf=-0.0406506397
							122:[image_png<1] yes=175,no=176,missing=176
								175:leaf=0.308688343
								176:leaf=0.0128641576
						82:[sizeBytes<63748] yes=123,no=124,missing=124
							123:leaf=-0.161128417
							124:[url_length<73] yes=177,no=178,missing=178
								177:leaf=-0.171196148
								178:leaf=0.0850186571
					50:[queryParam_num<1] yes=83,no=84,missing=84
						83:[image_webp<1] yes=125,no=126,missing=126
							125:[url_length<126] yes=179,no=180,missing=180
								179:[url_length<90] yes=247,no=248,missing=248
									247:[sizeBytes<219212] yes=329,no=330,missing=330
										329:leaf=0.091807805
										330:leaf=0.266139358
									248:[sizeBytes<219212] yes=331,no=332,missing=332
										331:leaf=0.321661204
										332:leaf=0.0919950604
								180:[url_length<131] yes=249,no=250,missing=250
									249:leaf=-0.0904925168
									250:leaf=0.0147287194
							126:[url_length<127] yes=181,no=182,missing=182
								181:[sizeBytes<63748] yes=251,no=252,missing=252
									251:leaf=0.107381023
									252:leaf=-0.164227501
								182:leaf=0.265557706
						84:[url_length<84] yes=127,no=128,missing=128
							127:leaf=0.278805554
							128:[url_length<98] yes=183,no=184,missing=184
								183:[image_webp<1] yes=253,no=254,missing=254
									253:leaf=-0.212995082
									254:leaf=-0.0176080782
								184:[sizeBytes<61444] yes=255,no=256,missing=256
									255:leaf=0.181016132
									256:[sizeBytes<219212] yes=333,no=334,missing=334
										333:leaf=-0.0496116094
										334:leaf=0.144824684
				28:[url_length<177] yes=51,no=52,missing=52
					51:[sizeBytes<73645] yes=85,no=86,missing=86
						85:leaf=-0.0668281689
						86:leaf=-0.209832698
					52:[sizeBytes<63748] yes=87,no=88,missing=88
						87:[url_length<187] yes=129,no=130,missing=130
							129:leaf=0.184209093
							130:leaf=0.00881621335
						88:[url_length<196] yes=131,no=132,missing=132
							131:leaf=-0.165113002
							132:leaf=0.0489742048

0:[path_count<5] yes=1,no=2,missing=2
	1:[image_webp<1] yes=3,no=4,missing=4
		3:[resourceType<5] yes=7,no=8,missing=8
			7:[sizeBytes<172] yes=15,no=16,missing=16
				15:[sizeBytes<8] yes=31,no=32,missing=32
					31:[image_png<1] yes=55,no=56,missing=56
						55:[queryParam_num<9] yes=91,no=92,missing=92
							91:[url_length<96] yes=139,no=140,missing=140
								139:[url_length<59] yes=213,no=214,missing=214
									213:[url_length<53] yes=319,no=320,missing=320
										319:leaf=-0.0359954499
										320:leaf=0.183817044
									214:[resourceType<3] yes=321,no=322,missing=322
										321:leaf=-0.0540354252
										322:leaf=-0.172671244
								140:[path_count<4] yes=215,no=216,missing=216
									215:[resourceType<3] yes=323,no=324,missing=324
										323:leaf=0.0502170324
										324:leaf=0.351151079
									216:[url_length<104] yes=325,no=326,missing=326
										325:leaf=0.192324921
										326:leaf=-0.181258544
							92:[path_count<2] yes=141,no=142,missing=142
								141:leaf=-0.21026209
								142:[url_length<1058] yes=217,no=218,missing=218
									217:[url_length<256] yes=327,no=328,missing=328
										327:leaf=0.176818535
										328:leaf=-0.186306059
									218:leaf=0.286806166
						56:leaf=0.284054577
					32:[url_length<73] yes=57,no=58,missing=58
						57:[url_length<58] yes=93,no=94,missing=94
							93:[sizeBytes<70] yes=143,no=144,missing=144
								143:[sizeBytes<65] yes=219,no=220,missing=220
									219:[url_length<52] yes=329,no=330,missing=330
										329:leaf=0.00959912594
										330:leaf=0.285527408
									220:leaf=0.525413156
								144:[path_count<3] yes=221,no=222,missing=222
									221:leaf=-0.22216098
									222:leaf=0.269804031
							94:[sizeBytes<29] yes=145,no=146,missing=146
								145:leaf=0.0726491138
								146:[queryParam_num<3] yes=223,no=224,missing=224
									223:[application_javascript<1] yes=331,no=332,missing=332
										331:leaf=-0.244760036
										332:leaf=-0.106471494
									224:leaf=-0.0109520042
						58:[image_png<1] yes=95,no=96,missing=96
							95:[image_gif<1] yes=147,no=148,missing=148
								147:[path_count<4] yes=225,no=226,missing=226
									225:[url_length<81] yes=333,no=334,missing=334
										333:leaf=-0.0502658263
										334:leaf=0.334829867
									226:[queryParam_num<1] yes=335,no=336,missing=336
										335:leaf=-0.139263377
										336:leaf=0.0248616245
								148:[queryParam_num<17] yes=227,no=228,missing=228
									227:[sizeBytes<38] yes=337,no=338,missing=338
										337:leaf=-0.00487610558
										338:leaf=0.208083346
									228:[sizeBytes<43] yes=339,no=340,missing=340
										339:leaf=0.0618995614
										340:leaf=-0.140986875
							96:[url_length<196] yes=149,no=150,missing=150
								149:leaf=-0.189694911
								150:leaf=0.14675054
				16:[resourceType<3] yes=33,no=34,missing=34
					33:[image_jpeg<1] yes=59,no=60,missing=60
						59:[url_length<47] yes=97,no=98,missing=98
							97:[sizeBytes<12645] yes=151,no=152,missing=152
								151:[url_length<42] yes=229,no=230,missing=230
									229:[sizeBytes<995] yes=341,no=342,missing=342
										341:leaf=-0.195630074
										342:leaf=-0.0304414425
									230:[resourceType<1] yes=343,no=344,missing=344
										343:leaf=0.247055009
										344:leaf=-0.0251829531
								152:[sizeBytes<49754] yes=231,no=232,missing=232
									231:leaf=-0.219237849
									232:[sizeBytes<65968] yes=345,no=346,missing=346
										345:leaf=0.049627956
										346:leaf=-0.194024518
							98:[url_length<53] yes=153,no=154,missing=154
								153:[url_length<50] yes=233,no=234,missing=234
									233:[text_javascript<1] yes=347,no=348,missing=348
										347:leaf=-0.0840837508
										348:leaf=0.129543886
									234:[resourceType<2] yes=349,no=350,missing=350
										349:leaf=0.0249865428
										350:leaf=0.305669367
								154:[url_length<63] yes=235,no=236,missing=236
									235:[url_length<55] yes=351,no=352,missing=352
										351:leaf=0.0478919409
										352:leaf=-0.134476274
									236:[url_length<71] yes=353,no=354,missing=354
										353:leaf=0.149333701
										354:leaf=-0.0141371787
						60:[url_length<41] yes=99,no=100,missing=100
							99:leaf=0.306035876
							100:[sizeBytes<188758] yes=155,no=156,missing=156
								155:[url_length<59] yes=237,no=238,missing=238
									237:[url_length<57] yes=355,no=356,missing=356
										355:leaf=-0.11134509
										356:leaf=0.327032447
									238:[path_count<4] yes=357,no=358,missing=358
										357:leaf=-0.16509068
										358:leaf=-0.0706852898
								156:[sizeBytes<268458] yes=239,no=240,missing=240
									239:leaf=0.258298606
									240:leaf=0.00367471459
					34:[queryParam_num<48] yes=61,no=62,missing=62
						61:[url_length<96] yes=101,no=102,missing=102
							101:[url_length<63] yes=157,no=158,missing=158
								157:[sizeBytes<245] yes=241,no=242,missing=242
									241:leaf=-0.219716057
									242:[sizeBytes<21921] yes=359,no=360,missing=360
										359:leaf=0.141075596
										360:leaf=-0.144236609
								158:[sizeBytes<362] yes=243,no=244,missing=244
									243:leaf=-0.0590155311
									244:[sizeBytes<73645] yes=361,no=362,missing=362
										361:leaf=-0.220784023
										362:leaf=-0.0754143894
							102:[sizeBytes<1588] yes=159,no=160,missing=160
								159:leaf=-0.223429486
								160:[url_length<377] yes=245,no=246,missing=246
									245:[url_length<121] yes=363,no=364,missing=364
										363:leaf=0.0779088885
										364:leaf=-0.178726584
									246:leaf=0.373202443
						62:leaf=0.231725886
			8:[path_count<2] yes=17,no=18,missing=18
				17:[sizeBytes<1220] yes=35,no=36,missing=36
					35:[status<206] yes=63,no=64,missing=64
						63:[application_json<1] yes=103,no=104,missing=104
							103:[url_length<58] yes=161,no=162,missing=162
								161:[url_length<50] yes=247,no=248,missing=248
									247:leaf=-0.185998067
									248:leaf=0.177056849
								162:leaf=-0.216175392
							104:[url_length<86] yes=163,no=164,missing=164
								163:leaf=-0.162875161
								164:leaf=0.0393193327
						64:leaf=0.0719878078
					36:leaf=0.224068671
				18:[application_javascript<1] yes=37,no=38,missing=38
					37:[queryParam_num<1] yes=65,no=66,missing=66
						65:[sizeBytes<154] yes=105,no=106,missing=106
							105:[status<302] yes=165,no=166,missing=166
								165:[url_length<61] yes=249,no=250,missing=250
									249:[resourceType<8] yes=365,no=366,missing=366
										365:leaf=-0.181185469
										366:leaf=-0.0396019183
									250:[url_length<63] yes=367,no=368,missing=368
										367:leaf=0.280454248
										368:leaf=-0.150461301
								166:leaf=-0.0289739966
							106:[sizeBytes<172] yes=167,no=168,missing=168
								167:leaf=0.372561902
								168:[url_length<65] yes=251,no=252,missing=252
									251:[url_length<57] yes=369,no=370,missing=370
										369:leaf=-0.087012738
										370:leaf=0.223668292
									252:[url_length<76] yes=371,no=372,missing=372
										371:leaf=-0.200847223
										372:leaf=-0.0269463994
						66:[url_length<126] yes=107,no=108,missing=108
							107:[url_length<76] yes=169,no=170,missing=170
								169:[path_count<4] yes=253,no=254,missing=254
									253:[sizeBytes<42] yes=373,no=374,missing=374
										373:leaf=-0.157464758
										374:leaf=0.00266806013
									254:leaf=0.143019065
								170:[url_length<92] yes=255,no=256,missing=256
									255:leaf=0.353952825
									256:[url_length<110] yes=375,no=376,missing=376
										375:leaf=-0.164734676
										376:leaf=0.248338088
							108:[path_count<3] yes=171,no=172,missing=172
								171:[resourceType<7] yes=257,no=258,missing=258
									257:[queryParam_num<10] yes=377,no=378,missing=378
										377:leaf=-0.165037423
										378:leaf=-0.0500728749
									258:[queryParam_num<14] yes=379,no=380,missing=380
										379:leaf=0.459273189
										380:leaf=0.115864076
								172:[queryParam_num<6] yes=259,no=260,missing=260
									259:leaf=-0.0349575132
									260:leaf=-0.220857769
					38:[url_length<83] yes=67,no=68,missing=68
						67:leaf=0.293263882
						68:leaf=-0.0979645103
		4:[url_length<200] yes=9,no=10,missing=10
			9:[path_count<4] yes=19,no=20,missing=20
				19:[path_count<2] yes=39,no=40,missing=40
					39:[sizeBytes<8135] yes=69,no=70,missing=70
						69:[url_length<80] yes=109,no=110,missing=110
							109:[sizeBytes<2626] yes=173,no=174,missing=174
								173:leaf=0.0439376943
								174:leaf=0.170993
							110:leaf=-0.0494747162
						70:[sizeBytes<65968] yes=111,no=112,missing=112
							111:leaf=-0.199701607
							112:leaf=-0.0404758602
					40:[path_count<3] yes=71,no=72,missing=72
						71:leaf=-0.224889159
						72:[url_length<66] yes=113,no=114,missing=114
							113:[url_length<63] yes=175,no=176,missing=176
								175:[sizeBytes<10035] yes=261,no=262,missing=262
									261:leaf=-0.170932576
									262:leaf=0.0469976328
								176:leaf=0.136100486
							114:leaf=-0.164803267
				20:[url_length<67] yes=41,no=42,missing=42
					41:leaf=-0.184457749
					42:[url_length<86] yes=73,no=74,missing=74
						73:leaf=0.23345232
						74:[sizeBytes<7113] yes=115,no=116,missing=116
							115:[sizeBytes<5048] yes=177,no=178,missing=178
								177:[sizeBytes<2546] yes=263,no=264,missing=264
									263:leaf=-0.035699103
									264:leaf=-0.16093336
								178:leaf=0.249399781
							116:leaf=-0.131962582
			10:[queryParam_num<4] yes=21,no=22,missing=22
				21:leaf=-0.0621355474
				22:leaf=0.424760789
	2:[image_jpeg<1] yes=5,no=6,missing=6
		5:[url_length<85] yes=11,no=12,missing=12
			11:[path_count<6] yes=23,no=24,missing=24
				23:[resourceType<8] yes=43,no=44,missing=43
					43:[resourceType<2] yes=75,no=76,missing=76
						75:[url_length<69] yes=117,no=118,missing=118
							117:[sizeBytes<82679] yes=179,no=180,missing=180
								179:[url_length<65] yes=265,no=266,missing=266
									265:[url_length<59] yes=381,no=382,missing=382
										381:leaf=-0.0250069648
										382:leaf=-0.173393846
									266:[sizeBytes<172] yes=383,no=384,missing=384
										383:leaf=-0.107840143
										384:leaf=0.0253388863
								180:[sizeBytes<103061] yes=267,no=268,missing=268
									267:leaf=0.153575182
									268:leaf=-0.104420699
							118:[sizeBytes<3149] yes=181,no=182,missing=182
								181:[sizeBytes<2] yes=269,no=270,missing=270
									269:[url_length<76] yes=385,no=386,missing=386
										385:leaf=0.0820697993
										386:leaf=0.186017185
									270:[sizeBytes<1362] yes=387,no=388,missing=388
										387:leaf=0.298003256
										388:leaf=0.0684602186
								182:[url_length<74] yes=271,no=272,missing=272
									271:[image_webp<1] yes=389,no=390,missing=390
										389:leaf=0.0229514632
										390:leaf=-0.179107383
									272:[sizeBytes<7906] yes=391,no=392,missing=392
										391:leaf=-0.109254934
										392:leaf=0.134271264
						76:[resourceType<3] yes=119,no=120,missing=119
							119:[application_javascript<1] yes=183,no=184,missing=184
								183:[sizeBytes<30979] yes=273,no=274,missing=274
									273:[url_length<66] yes=393,no=394,missing=394
										393:leaf=-0.207739025
										394:leaf=-0.118332587
									274:[sizeBytes<58631] yes=395,no=396,missing=396
										395:leaf=0.165689692
										396:leaf=-0.123162508
								184:[url_length<68] yes=275,no=276,missing=276
									275:leaf=0.243595198
									276:[url_length<72] yes=397,no=398,missing=398
										397:leaf=-0.13253513
										398:leaf=-0.025573153
							120:[url_length<76] yes=185,no=186,missing=186
								185:[url_length<74] yes=277,no=278,missing=278
									277:[url_length<68] yes=399,no=400,missing=400
										399:leaf=0.030359162
										400:leaf=-0.109327689
									278:leaf=0.43984428
								186:[url_length<82] yes=279,no=280,missing=280
									279:leaf=-0.139107138
									280:leaf=-0.0275841542
					44:[sizeBytes<11385] yes=77,no=78,missing=78
						77:leaf=-0.177884012
						78:leaf=0.310924023
				24:[status<201] yes=45,no=46,missing=46
					45:[sizeBytes<55413] yes=79,no=80,missing=80
						79:[resourceType<6] yes=121,no=122,missing=122
							121:[sizeBytes<387] yes=187,no=188,missing=188
								187:[url_length<77] yes=281,no=282,missing=282
									281:[resourceType<2] yes=401,no=402,missing=402
										401:leaf=-0.175001681
										402:leaf=0.241727874
									282:[sizeBytes<2] yes=403,no=404,missing=404
										403:leaf=-0.209947973
										404:leaf=-0.0456703268
								188:[url_length<67] yes=283,no=284,missing=284
									283:leaf=-0.0343358964
									284:leaf=-0.208766729
							122:[sizeBytes<46] yes=189,no=190,missing=190
								189:leaf=-0.0126008904
								190:leaf=0.14080523
						80:[text_javascript<1] yes=123,no=124,missing=124
							123:[url_length<72] yes=191,no=192,missing=192
								191:leaf=0.0415760539
								192:[sizeBytes<86497] yes=285,no=286,missing=286
									285:leaf=0.0306967348
									286:leaf=0.284608096
							124:leaf=-0.117535882
					46:leaf=0.276757985
			12:[application_javascript<1] yes=25,no=26,missing=26
				25:[path_count<8] yes=47,no=48,missing=48
					47:[path_count<7] yes=81,no=82,missing=82
						81:[resourceType<3] yes=125,no=126,missing=126
							125:[sizeBytes<31839] yes=193,no=194,missing=194
								193:[queryParam_num<1] yes=287,no=288,missing=288
									287:[url_length<121] yes=405,no=406,missing=406
										405:leaf=-0.0397262685
										406:leaf=0.241742924
									288:[url_length<122] yes=407,no=408,missing=408
										407:leaf=0.274841756
										408:leaf=-0.0933476985
								194:[text_javascript<1] yes=289,no=290,missing=290
									289:[sizeBytes<188758] yes=409,no=410,missing=410
										409:leaf=0.197876006
										410:leaf=0.0149953607
									290:leaf=-0.170117036
							126:[url_length<109] yes=195,no=196,missing=196
								195:[sizeBytes<38568] yes=291,no=292,missing=292
									291:[queryParam_num<1] yes=411,no=412,missing=412
										411:leaf=-0.100770168
										412:leaf=0.148745596
									292:[resourceType<6] yes=413,no=414,missing=414
										413:leaf=0.305702776
										414:leaf=-0.125750825
								196:[resourceType<7] yes=293,no=294,missing=294
									293:[sizeBytes<2] yes=415,no=416,missing=416
										415:leaf=-0.0609540641
										416:leaf=-0.19374831
									294:leaf=0.0327435657
						82:[url_length<146] yes=127,no=128,missing=128
							127:[queryParam_num<4] yes=197,no=198,missing=198
								197:[url_length<126] yes=295,no=296,missing=296
									295:[sizeBytes<5969] yes=417,no=418,missing=418
										417:leaf=-0.228783354
										418:leaf=-0.123569421
									296:[url_length<128] yes=419,no=420,missing=420
										419:leaf=0.129357025
										420:leaf=-0.133144855
								198:leaf=0.0429273993
							128:[x_datadog_parent_id<1] yes=199,no=200,missing=200
								199:[sizeBytes<1220] yes=297,no=298,missing=298
									297:leaf=-0.0876551792
									298:leaf=0.298654646
								200:[sizeBytes<19000] yes=299,no=300,missing=300
									299:[sizeBytes<7906] yes=421,no=422,missing=422
										421:leaf=-0.155022487
										422:leaf=0.0432134569
									300:leaf=-0.177089676
					48:[queryParam_num<2] yes=83,no=84,missing=84
						83:[url_length<256] yes=129,no=130,missing=130
							129:[path_count<10] yes=201,no=202,missing=202
								201:[queryParam_num<1] yes=301,no=302,missing=302
									301:[image_webp<1] yes=423,no=424,missing=424
										423:leaf=0.0753474459
										424:leaf=0.363674551
									302:[sizeBytes<2] yes=425,no=426,missing=426
										425:leaf=0.0982955471
										426:leaf=-0.191642538
								202:[sizeBytes<52152] yes=303,no=304,missing=304
									303:[path_count<11] yes=427,no=428,missing=428
										427:leaf=-0.014189682
										428:leaf=-0.152177066
									304:[queryParam_num<1] yes=429,no=430,missing=430
										429:leaf=0.103708781
										430:leaf=-0.147977114
							130:[url_length<740] yes=203,no=204,missing=204
								203:[path_count<20] yes=305,no=306,missing=306
									305:[sizeBytes<6376] yes=431,no=432,missing=432
										431:leaf=0.0218292084
										432:leaf=0.23243928
									306:[sizeBytes<10316] yes=433,no=434,missing=434
										433:leaf=-0.159158692
										434:leaf=0.0581665896
								204:leaf=0.260763139
						84:leaf=0.265853345
				26:[queryParam_num<1] yes=49,no=50,missing=50
					49:[sizeBytes<43695] yes=85,no=86,missing=86
						85:[url_length<88] yes=131,no=132,missing=132
							131:leaf=0.0616905801
							132:[url_length<114] yes=205,no=206,missing=206
								205:leaf=-0.17864427
								206:[url_length<119] yes=307,no=308,missing=308
									307:[url_length<116] yes=435,no=436,missing=436
										435:leaf=-0.0452900194
										436:leaf=0.0991775393
									308:[sizeBytes<780] yes=437,no=438,missing=438
										437:leaf=-0.151531801
										438:leaf=0.0208532289
						86:leaf=0.0862341821
					50:[url_length<127] yes=87,no=88,missing=88
						87:[url_length<104] yes=133,no=134,missing=134
							133:leaf=0.0153490482
							134:leaf=0.252969414
						88:leaf=-0.0341004133
		6:[sizeBytes<2] yes=13,no=14,missing=14
			13:[queryParam_num<1] yes=27,no=28,missing=28
				27:leaf=0.26045239
				28:leaf=-0.189235315
			14:[path_count<8] yes=29,no=30,missing=30
				29:[path_count<7] yes=51,no=52,missing=52
					51:[queryParam_num<2] yes=89,no=90,missing=90
						89:[url_length<93] yes=135,no=136,missing=136
							135:[path_count<6] yes=207,no=208,missing=208
								207:[sizeBytes<17421] yes=309,no=310,missing=310
									309:[queryParam_num<1] yes=439,no=440,missing=440
										439:leaf=-0.0623727329
										440:leaf=0.217648014
									310:[url_length<88] yes=441,no=442,missing=442
										441:leaf=0.11774113
										442:leaf=-0.0841418952
								208:[url_length<71] yes=311,no=312,missing=312
									311:leaf=0.0437372141
									312:leaf=-0.212148741
							136:[url_length<116] yes=209,no=210,missing=210
								209:[path_count<6] yes=313,no=314,missing=314
									313:[sizeBytes<10949] yes=443,no=444,missing=444
										443:leaf=-0.0794567987
										444:leaf=0.170607597
									314:[sizeBytes<76685] yes=445,no=446,missing=446
										445:leaf=0.294662625
										446:leaf=0.0838299543
								210:[url_length<136] yes=315,no=316,missing=316
									315:leaf=-0.187189415
									316:[sizeBytes<12322] yes=447,no=448,missing=448
										447:leaf=-0.142050192
										448:leaf=0.167900309
						90:[url_length<140] yes=137,no=138,missing=138
							137:leaf=-0.244822457
							138:[sizeBytes<22724] yes=211,no=212,missing=212
								211:[sizeBytes<13247] yes=317,no=318,missing=318
									317:leaf=0.12191581
									318:leaf=0.00846779812
								212:leaf=-0.169120803
					52:leaf=0.283684701
				30:[url_length<128] yes=53,no=54,missing=54
					53:leaf=-0.209131792
					54:leaf=-0.0437099636

0:[is_image<1] yes=1,no=2,missing=2
	1:[url_length<421] yes=3,no=4,missing=4
		3:[image_jpeg<1] yes=7,no=8,missing=8
			7:[queryParam_num<1] yes=15,no=16,missing=16
				15:[application_x_javascript<1] yes=31,no=32,missing=32
					31:[resourceType<3] yes=59,no=60,missing=60
						59:[path_count<4] yes=101,no=102,missing=102
							101:[url_length<47] yes=151,no=152,missing=152
								151:[sizeBytes<10774] yes=215,no=216,missing=216
									215:[url_length<45] yes=287,no=288,missing=288
										287:leaf=-0.0142430756
										288:leaf=-0.146824464
									216:[resourceType<1] yes=289,no=290,missing=290
										289:leaf=0.000111795809
										290:leaf=-0.202338248
								152:[url_length<55] yes=217,no=218,missing=218
									217:[sizeBytes<423] yes=291,no=292,missing=292
										291:leaf=-0.00699338177
										292:leaf=0.198779732
									218:[application_javascript<1] yes=293,no=294,missing=294
										293:leaf=-0.0478561707
										294:leaf=0.0370924473
							102:[resourceType<1] yes=153,no=154,missing=154
								153:[url_length<93] yes=219,no=220,missing=220
									219:leaf=0.390339106
									220:leaf=-0.187426671
								154:[sizeBytes<68382] yes=221,no=222,missing=222
									221:[image_png<1] yes=295,no=296,missing=296
										295:leaf=-0.0858204216
										296:leaf=0.221607715
									222:[text_javascript<1] yes=297,no=298,missing=298
										297:leaf=0.1226658
										298:leaf=-0.205736324
						60:[url_length<191] yes=103,no=104,missing=104
							103:[application_javascript<1] yes=155,no=156,missing=156
								155:[resourceType<8] yes=223,no=224,missing=223
									223:[sizeBytes<14650] yes=299,no=300,missing=300
										299:leaf=-0.080519557
										300:leaf=-0.164804801
									224:[sizeBytes<22366] yes=301,no=302,missing=302
										301:leaf=-0.114934675
										302:leaf=0.175965279
								156:[url_length<58] yes=225,no=226,missing=226
									225:leaf=0.275842071
									226:leaf=-0.0174749028
							104:[path_count<9] yes=157,no=158,missing=158
								157:leaf=0.266415298
								158:leaf=-0.0445043407
					32:[url_length<110] yes=61,no=62,missing=62
						61:[path_count<3] yes=105,no=106,missing=106
							105:[url_length<62] yes=159,no=160,missing=160
								159:[url_length<41] yes=227,no=228,missing=228
									227:leaf=0.0658088848
									228:leaf=-0.148706496
								160:leaf=0.271779954
							106:[url_length<94] yes=161,no=162,missing=162
								161:leaf=-0.207670137
								162:leaf=0.00038454801
						62:leaf=0.246291161
				16:[url_length<226] yes=33,no=34,missing=34
					33:[sizeBytes<151425] yes=63,no=64,missing=64
						63:[sizeBytes<86497] yes=107,no=108,missing=108
							107:[url_length<51] yes=163,no=164,missing=164
								163:[resourceType<1] yes=229,no=230,missing=230
									229:[url_length<45] yes=303,no=304,missing=304
										303:leaf=0.0535754673
										304:leaf=0.00815494638
									230:[url_length<41] yes=305,no=306,missing=306
										305:leaf=0.0385061651
										306:leaf=-0.17993544
								164:[url_length<57] yes=231,no=232,missing=232
									231:[status<201] yes=307,no=308,missing=308
										307:leaf=0.086319983
										308:leaf=0.470736355
									232:[url_length<93] yes=309,no=310,missing=310
										309:leaf=-0.0256695244
										310:leaf=0.0482169501
							108:[path_count<6] yes=165,no=166,missing=166
								165:leaf=-0.208830342
								166:leaf=-0.0283187926
						64:[queryParam_num<3] yes=109,no=110,missing=110
							109:leaf=0.255121142
							110:leaf=-0.0369096212
					34:[status<206] yes=65,no=66,missing=66
						65:[sizeBytes<172] yes=111,no=112,missing=112
							111:[sizeBytes<8] yes=167,no=168,missing=168
								167:[queryParam_num<12] yes=233,no=234,missing=234
									233:[resourceType<7] yes=311,no=312,missing=312
										311:leaf=-0.145700529
										312:leaf=0.103758238
									234:leaf=-0.211186439
								168:[path_count<4] yes=235,no=236,missing=236
									235:[sizeBytes<29] yes=313,no=314,missing=314
										313:leaf=0.33868596
										314:leaf=0.00913323928
									236:leaf=-0.147935018
							112:[queryParam_num<6] yes=169,no=170,missing=170
								169:leaf=-0.223986179
								170:leaf=-0.0377364196
						66:[queryParam_num<7] yes=113,no=114,missing=114
							113:leaf=-0.00695465086
							114:leaf=0.224544093
			8:[path_count<6] yes=17,no=18,missing=18
				17:[url_length<77] yes=35,no=36,missing=36
					35:[path_count<3] yes=67,no=68,missing=68
						67:[sizeBytes<25426] yes=115,no=116,missing=116
							115:leaf=0.181830704
							116:[url_length<65] yes=171,no=172,missing=172
								171:leaf=0.0956957638
								172:[sizeBytes<42096] yes=237,no=238,missing=238
									237:leaf=-0.0173325595
									238:leaf=-0.137696818
						68:[path_count<5] yes=117,no=118,missing=118
							117:[sizeBytes<76685] yes=173,no=174,missing=174
								173:leaf=-0.206748009
								174:leaf=-0.0699070841
							118:[sizeBytes<10949] yes=175,no=176,missing=176
								175:[sizeBytes<10035] yes=239,no=240,missing=240
									239:[sizeBytes<7906] yes=315,no=316,missing=316
										315:leaf=0.0119368555
										316:leaf=-0.0732393414
									240:leaf=0.0562682934
								176:leaf=-0.130712822
					36:[path_count<2] yes=69,no=70,missing=70
						69:leaf=-0.183110952
						70:[sizeBytes<25031] yes=119,no=120,missing=120
							119:[sizeBytes<8598] yes=177,no=178,missing=178
								177:leaf=-0.17773591
								178:[sizeBytes<19998] yes=241,no=242,missing=242
									241:leaf=0.0353197232
									242:leaf=0.165423289
							120:leaf=-0.178577587
				18:[sizeBytes<2] yes=37,no=38,missing=38
					37:leaf=-0.154609352
					38:[url_length<149] yes=71,no=72,missing=72
						71:leaf=0.338191599
						72:leaf=0.022994943
		4:[resourceType<5] yes=9,no=10,missing=10
			9:[path_count<2] yes=19,no=20,missing=20
				19:[queryParam_num<1] yes=39,no=40,missing=40
					39:[sizeBytes<470] yes=73,no=74,missing=74
						73:[url_length<665] yes=121,no=122,missing=122
							121:leaf=0.26471144
							122:[url_length<1398] yes=179,no=180,missing=180
								179:leaf=-0.0460372195
								180:leaf=0.141190782
						74:leaf=-0.133434951
					40:[url_length<882] yes=75,no=76,missing=76
						75:[queryParam_num<39] yes=123,no=124,missing=124
							123:[resourceType<2] yes=181,no=182,missing=182
								181:[sizeBytes<2] yes=243,no=244,missing=244
									243:leaf=-0.0539585724
									244:leaf=-0.190835327
								182:leaf=0.0630324334
							124:leaf=0.215397939
						76:leaf=-0.174016014
				20:[application_json<1] yes=41,no=42,missing=42
					41:[queryParam_num<6] yes=77,no=78,missing=78
						77:[queryParam_num<1] yes=125,no=126,missing=126
							125:[url_length<740] yes=183,no=184,missing=184
								183:[sizeBytes<2] yes=245,no=246,missing=246
									245:[url_length<580] yes=317,no=318,missing=318
										317:leaf=0.0597090088
										318:leaf=-0.0747338459
									246:leaf=0.189915225
								184:leaf=0.21987085
							126:[url_length<580] yes=185,no=186,missing=186
								185:[queryParam_num<2] yes=247,no=248,missing=248
									247:leaf=-0.0508643761
									248:leaf=0.268375963
								186:leaf=-0.200155169
						78:[path_count<5] yes=127,no=128,missing=128
							127:[status<206] yes=187,no=188,missing=188
								187:[sizeBytes<1987] yes=249,no=250,missing=250
									249:[url_length<665] yes=319,no=320,missing=320
										319:leaf=0.151642233
										320:leaf=0.334293365
									250:[sizeBytes<11960] yes=321,no=322,missing=322
										321:leaf=-0.0899241194
										322:leaf=0.139486521
								188:leaf=-0.058659602
							128:leaf=-0.16538845
					42:[queryParam_num<22] yes=79,no=80,missing=80
						79:leaf=0.019653013
						80:leaf=-0.185795695
			10:[resourceType<7] yes=21,no=22,missing=22
				21:leaf=-0.212181315
				22:[sizeBytes<2] yes=43,no=44,missing=44
					43:[queryParam_num<14] yes=81,no=82,missing=82
						81:[url_length<580] yes=129,no=130,missing=130
							129:leaf=0.222905114
							130:leaf=-0.00846000202
						82:leaf=-0.017117219
					44:leaf=-0.146418467
	2:[sizeBytes<104] yes=5,no=6,missing=6
		5:[url_length<104] yes=11,no=12,missing=12
			11:[status<201] yes=23,no=24,missing=24
				23:[path_count<4] yes=45,no=46,missing=46
					45:[sizeBytes<38] yes=83,no=84,missing=84
						83:[url_length<79] yes=131,no=132,missing=132
							131:leaf=0.0727184042
							132:leaf=-0.164981052
						84:leaf=0.206103712
					46:leaf=0.256359845
				24:[path_count<2] yes=47,no=48,missing=48
					47:leaf=0.115155853
					48:leaf=-0.222082764
			12:[queryParam_num<1] yes=25,no=26,missing=26
				25:[url_length<109] yes=49,no=50,missing=50
					49:leaf=-0.00294511183
					50:[url_length<132] yes=85,no=86,missing=86
						85:leaf=0.197349086
						86:leaf=0.0129947411
				26:[sizeBytes<43] yes=51,no=52,missing=52
					51:leaf=-0.21124588
					52:[url_length<511] yes=87,no=88,missing=88
						87:leaf=-0.0661240295
						88:leaf=0.178125307
		6:[path_count<9] yes=13,no=14,missing=14
			13:[path_count<5] yes=27,no=28,missing=28
